{"learner":{"attributes":{"scikit_learn":"{\"_estimator_type\": \"regressor\"}"},"feature_names":["time","location_id"],"feature_types":["int","int"],"gradient_booster":{"model":{"gbtree_model_param":{"num_parallel_tree":"1","num_trees":"100"},"iteration_indptr":[0,1,2,3,4,5,6,7,8,9,10,11,12,13,14,15,16,17,18,19,20,21,22,23,24,25,26,27,28,29,30,31,32,33,34,35,36,37,38,39,40,41,42,43,44,45,46,47,48,49,50,51,52,53,54,55,56,57,58,59,60,61,62,63,64,65,66,67,68,69,70,71,72,73,74,75,76,77,78,79,80,81,82,83,84,85,86,87,88,89,90,91,92,93,94,95,96,97,98,99,100],"tree_info":[0,0,0,0,0,0,0,0,0,0,0,0,0,0,0,0,0,0,0,0,0,0,0,0,0,0,0,0,0,0,0,0,0,0,0,0,0,0,0,0,0,0,0,0,0,0,0,0,0,0,0,0,0,0,0,0,0,0,0,0,0,0,0,0,0,0,0,0,0,0,0,0,0,0,0,0,0,0,0,0,0,0,0,0,0,0,0,0,0,0,0,0,0,0,0,0,0,0,0,0],"trees":[{"base_weights":[-4.7683716E-7,2.1142852E0,-7.928573E-1,8.5714275E-1,-1.2857151E-1],"categories":[],"categories_nodes":[],"categories_segments":[],"categories_sizes":[],"default_left":[0,0,0,0,0],"id":0,"left_children":[1,3,-1,-1,-1],"loss_changes":[5.0289795E1,1.066939E1,0E0,0E0,0E0],"parents":[2147483647,0,0,1,1],"right_children":[2,4,-1,-1,-1],"split_conditions":[1E1,1.03E2,-7.928573E-1,8.5714275E-1,-1.2857151E-1],"split_indices":[0,1,0,0,0],"split_type":[0,0,0,0,0],"sum_hessian":[7E0,4E0,3E0,3E0,1E0],"tree_param":{"num_deleted":"0","num_feature":"2","num_nodes":"5","size_leaf_vector":"1"}},{"base_weights":[-8.036137E-3,1.6257133E0,-6.144642E-1,2.214285E0,-1.0928593E-1,2.5238087E0,1.9285698E-1,1.9285698E-1,9.42857E-1],"categories":[],"categories_nodes":[],"categories_segments":[],"categories_sizes":[],"default_left":[0,0,0,0,0,0,0,0,0],"id":1,"left_children":[1,3,-1,5,-1,7,-1,-1,-1],"loss_changes":[2.9994925E1,6.66292E0,0E0,3.2312965E-1,0E0,1.4727917E0,0E0,0E0,0E0],"parents":[2147483647,0,0,1,1,3,3,5,5],"right_children":[2,4,-1,6,-1,8,-1,-1,-1],"split_conditions":[1E1,1.03E2,-6.144642E-1,9E0,-1.0928593E-1,1.02E2,1.9285698E-1,1.9285698E-1,9.42857E-1],"split_indices":[0,1,0,0,0,1,0,0,0],"split_type":[0,0,0,0,0,0,0,0,0],"sum_hessian":[7E0,4E0,3E0,3E0,1E0,2E0,1E0,1E0,1E0],"tree_param":{"num_deleted":"0","num_feature":"2","num_nodes":"9","size_leaf_vector":"1"}},{"base_weights":[6.997776E-2,1.3818573E0,-1.5873661E0,1.882143E0,-9.289284E-2,-6.6747326E-1,-6.332143E-1,2.1452382E0,1.6392861E-1,2.325268E-1,-5.174732E-1,1.6392861E-1,8.014286E-1],"categories":[],"categories_nodes":[],"categories_segments":[],"categories_sizes":[],"default_left":[0,0,0,0,0,0,0,0,0,0,0,0,0],"id":2,"left_children":[1,3,5,7,-1,-1,9,11,-1,-1,-1,-1,-1],"loss_changes":[1.9587397E1,4.813959E0,1.0244122E0,2.3346043E-1,0E0,0E0,5.94928E0,1.0640907E0,0E0,0E0,0E0,0E0,0E0],"parents":[2147483647,0,0,1,1,2,2,3,3,6,6,7,7],"right_children":[2,4,6,8,-1,-1,10,12,-1,-1,-1,-1,-1],"split_conditions":[1E1,1.03E2,1.02E2,9E0,-9.289284E-2,-6.6747326E-1,1.03E2,1.02E2,1.6392861E-1,2.325268E-1,-5.174732E-1,1.6392861E-1,8.014286E-1],"split_indices":[0,1,1,0,0,0,1,1,0,0,0,0,0],"split_type":[0,0,0,0,0,0,0,0,0,0,0,0,0],"sum_hessian":[7E0,4E0,3E0,3E0,1E0,1E0,2E0,2E0,1E0,1E0,1E0,1E0,1E0],"tree_param":{"num_deleted":"0","num_feature":"2","num_nodes":"13","size_leaf_vector":"1"}},{"base_weights":[5.948019E-2,1.1745781E0,-1.3492622E0,1.5998211E0,-7.8959085E-2,-5.673523E-1,-5.3823346E-1,1.823452E0,1.3933927E-1,1.9764748E-1,-4.3985254E-1,1.3933927E-1,6.8121415E-1],"categories":[],"categories_nodes":[],"categories_segments":[],"categories_sizes":[],"default_left":[0,0,0,0,0,0,0,0,0,0,0,0,0],"id":3,"left_children":[1,3,5,7,-1,-1,9,11,-1,-1,-1,-1,-1],"loss_changes":[1.4151899E1,3.478087E0,7.4013186E-1,1.6867542E-1,0E0,0E0,4.2983537E0,7.6880455E-1,0E0,0E0,0E0,0E0,0E0],"parents":[2147483647,0,0,1,1,2,2,3,3,6,6,7,7],"right_children":[2,4,6,8,-1,-1,10,12,-1,-1,-1,-1,-1],"split_conditions":[1E1,1.03E2,1.02E2,9E0,-7.8959085E-2,-5.673523E-1,1.03E2,1.02E2,1.3933927E-1,1.9764748E-1,-4.3985254E-1,1.3933927E-1,6.8121415E-1],"split_indices":[0,1,1,0,0,0,1,1,0,0,0,0,0],"split_type":[0,0,0,0,0,0,0,0,0,0,0,0,0],"sum_hessian":[7E0,4E0,3E0,3E0,1E0,1E0,2E0,2E0,1E0,1E0,1E0,1E0,1E0],"tree_param":{"num_deleted":"0","num_feature":"2","num_nodes":"13","size_leaf_vector":"1"}},{"base_weights":[5.0558567E-2,9.9839175E-1,-1.1468725E0,1.359848E0,-6.7115024E-2,-4.8224947E-1,-4.5749792E-1,1.5499344E0,1.1843834E-1,1.6800041E-1,-3.738745E-1,1.1843834E-1,5.790322E-1],"categories":[],"categories_nodes":[],"categories_segments":[],"categories_sizes":[],"default_left":[0,0,0,0,0,0,0,0,0,0,0,0,0],"id":4,"left_children":[1,3,5,7,-1,-1,9,11,-1,-1,-1,-1,-1],"loss_changes":[1.0224747E1,2.5129147E0,5.347476E-1,1.2186861E-1,0E0,0E0,3.1055593E0,5.554619E-1,0E0,0E0,0E0,0E0,0E0],"parents":[2147483647,0,0,1,1,2,2,3,3,6,6,7,7],"right_children":[2,4,6,8,-1,-1,10,12,-1,-1,-1,-1,-1],"split_conditions":[1E1,1.03E2,1.02E2,9E0,-6.7115024E-2,-4.8224947E-1,1.03E2,1.02E2,1.1843834E-1,1.6800041E-1,-3.738745E-1,1.1843834E-1,5.790322E-1],"split_indices":[0,1,1,0,0,0,1,1,0,0,0,0,0],"split_type":[0,0,0,0,0,0,0,0,0,0,0,0,0],"sum_hessian":[7E0,4E0,3E0,3E0,1E0,1E0,2E0,2E0,1E0,1E0,1E0,1E0,1E0],"tree_param":{"num_deleted":"0","num_feature":"2","num_nodes":"13","size_leaf_vector":"1"}},{"base_weights":[4.297495E-2,8.486328E-1,-9.748411E-1,1.1558704E0,-5.7047654E-2,-4.0991193E-1,-3.8887277E-1,1.3174438E0,1.00672536E-1,1.4280052E-1,-3.1779328E-1,1.00672536E-1,4.9217722E-1],"categories":[],"categories_nodes":[],"categories_segments":[],"categories_sizes":[],"default_left":[0,0,0,0,0,0,0,0,0,0,0,0,0],"id":5,"left_children":[1,3,5,7,-1,-1,9,11,-1,-1,-1,-1,-1],"loss_changes":[7.387374E0,1.8155787E0,3.8635612E-1,8.8050365E-2,0E0,0E0,2.2437682E0,4.013219E-1,0E0,0E0,0E0,0E0,0E0],"parents":[2147483647,0,0,1,1,2,2,3,3,6,6,7,7],"right_children":[2,4,6,8,-1,-1,10,12,-1,-1,-1,-1,-1],"split_conditions":[1E1,1.03E2,1.02E2,9E0,-5.7047654E-2,-4.0991193E-1,1.03E2,1.02E2,1.00672536E-1,1.4280052E-1,-3.1779328E-1,1.00672536E-1,4.9217722E-1],"split_indices":[0,1,1,0,0,0,1,1,0,0,0,0,0],"split_type":[0,0,0,0,0,0,0,0,0,0,0,0,0],"sum_hessian":[7E0,4E0,3E0,3E0,1E0,1E0,2E0,2E0,1E0,1E0,1E0,1E0,1E0],"tree_param":{"num_deleted":"0","num_feature":"2","num_nodes":"13","size_leaf_vector":"1"}},{"base_weights":[3.6529064E-2,7.213379E-1,-8.2861423E-1,9.824896E-1,-4.8490334E-2,-3.4842512E-1,-3.3054098E-1,1.1198273E0,8.557148E-2,1.2138062E-1,-2.7012408E-1,8.557148E-2,4.1835082E-1],"categories":[],"categories_nodes":[],"categories_segments":[],"categories_sizes":[],"default_left":[0,0,0,0,0,0,0,0,0,0,0,0,0],"id":6,"left_children":[1,3,5,7,-1,-1,9,11,-1,-1,-1,-1,-1],"loss_changes":[5.3373733E0,1.3117526E0,2.7914453E-1,6.3617945E-2,0E0,0E0,1.6211227E0,2.8995776E-1,0E0,0E0,0E0,0E0,0E0],"parents":[2147483647,0,0,1,1,2,2,3,3,6,6,7,7],"right_children":[2,4,6,8,-1,-1,10,12,-1,-1,-1,-1,-1],"split_conditions":[1E1,1.03E2,1.02E2,9E0,-4.8490334E-2,-3.4842512E-1,1.03E2,1.02E2,8.557148E-2,1.2138062E-1,-2.7012408E-1,8.557148E-2,4.1835082E-1],"split_indices":[0,1,1,0,0,0,1,1,0,0,0,0,0],"split_type":[0,0,0,0,0,0,0,0,0,0,0,0,0],"sum_hessian":[7E0,4E0,3E0,3E0,1E0,1E0,2E0,2E0,1E0,1E0,1E0,1E0,1E0],"tree_param":{"num_deleted":"0","num_feature":"2","num_nodes":"13","size_leaf_vector":"1"}},{"base_weights":[3.1049728E-2,6.1313707E-1,-7.0432186E-1,8.351164E-1,-4.1217044E-2,-2.961611E-1,-2.8096008E-1,9.5185345E-1,7.273579E-2,1.0317364E-1,-2.2960569E-1,7.273579E-2,3.5559827E-1],"categories":[],"categories_nodes":[],"categories_segments":[],"categories_sizes":[],"default_left":[0,0,0,0,0,0,0,0,0,0,0,0,0],"id":7,"left_children":[1,3,5,7,-1,-1,9,11,-1,-1,-1,-1,-1],"loss_changes":[3.8562496E0,9.477446E-1,2.0168054E-1,4.5963764E-2,0E0,0E0,1.1712635E0,2.0949459E-1,0E0,0E0,0E0,0E0,0E0],"parents":[2147483647,0,0,1,1,2,2,3,3,6,6,7,7],"right_children":[2,4,6,8,-1,-1,10,12,-1,-1,-1,-1,-1],"split_conditions":[1E1,1.03E2,1.02E2,9E0,-4.1217044E-2,-2.961611E-1,1.03E2,1.02E2,7.273579E-2,1.0317364E-1,-2.2960569E-1,7.273579E-2,3.5559827E-1],"split_indices":[0,1,1,0,0,0,1,1,0,0,0,0,0],"split_type":[0,0,0,0,0,0,0,0,0,0,0,0,0],"sum_hessian":[7E0,4E0,3E0,3E0,1E0,1E0,2E0,2E0,1E0,1E0,1E0,1E0,1E0],"tree_param":{"num_deleted":"0","num_feature":"2","num_nodes":"13","size_leaf_vector":"1"}},{"base_weights":[2.6392937E-2,5.21167E-1,-5.9867287E-1,7.0984936E-1,-3.5034373E-2,-2.5173685E-1,-2.3881531E-1,8.0907565E-1,6.1825562E-2,8.76978E-2,-1.951647E-1,6.1825562E-2,3.022585E-1],"categories":[],"categories_nodes":[],"categories_segments":[],"categories_sizes":[],"default_left":[0,0,0,0,0,0,0,0,0,0,0,0,0],"id":8,"left_children":[1,3,5,7,-1,-1,9,11,-1,-1,-1,-1,-1],"loss_changes":[2.786139E0,6.847451E-1,1.4571548E-1,3.320813E-2,0E0,0E0,8.462386E-1,1.5135825E-1,0E0,0E0,0E0,0E0,0E0],"parents":[2147483647,0,0,1,1,2,2,3,3,6,6,7,7],"right_children":[2,4,6,8,-1,-1,10,12,-1,-1,-1,-1,-1],"split_conditions":[1E1,1.03E2,1.02E2,9E0,-3.5034373E-2,-2.5173685E-1,1.03E2,1.02E2,6.1825562E-2,8.76978E-2,-1.951647E-1,6.1825562E-2,3.022585E-1],"split_indices":[0,1,1,0,0,0,1,1,0,0,0,0,0],"split_type":[0,0,0,0,0,0,0,0,0,0,0,0,0],"sum_hessian":[7E0,4E0,3E0,3E0,1E0,1E0,2E0,2E0,1E0,1E0,1E0,1E0,1E0],"tree_param":{"num_deleted":"0","num_feature":"2","num_nodes":"13","size_leaf_vector":"1"}},{"base_weights":[2.2434235E-2,4.429924E-1,-5.0887203E-1,6.033726E-1,-2.9779244E-2,-2.1397649E-1,-2.0299275E-1,6.877149E-1,5.2551843E-2,7.454339E-2,-1.6589013E-1,5.2551843E-2,2.5691986E-1],"categories":[],"categories_nodes":[],"categories_segments":[],"categories_sizes":[],"default_left":[0,0,0,0,0,0,0,0,0,0,0,0,0],"id":9,"left_children":[1,3,5,7,-1,-1,9,11,-1,-1,-1,-1,-1],"loss_changes":[2.0129879E0,4.9472922E-1,1.052804E-1,2.399242E-2,0E0,0E0,6.1140954E-1,1.09356046E-1,0E0,0E0,0E0,0E0,0E0],"parents":[2147483647,0,0,1,1,2,2,3,3,6,6,7,7],"right_children":[2,4,6,8,-1,-1,10,12,-1,-1,-1,-1,-1],"split_conditions":[1E1,1.03E2,1.02E2,9E0,-2.9779244E-2,-2.1397649E-1,1.03E2,1.02E2,5.2551843E-2,7.454339E-2,-1.6589013E-1,5.2551843E-2,2.5691986E-1],"split_indices":[0,1,1,0,0,0,1,1,0,0,0,0,0],"split_type":[0,0,0,0,0,0,0,0,0,0,0,0,0],"sum_hessian":[7E0,4E0,3E0,3E0,1E0,1E0,2E0,2E0,1E0,1E0,1E0,1E0,1E0],"tree_param":{"num_deleted":"0","num_feature":"2","num_nodes":"13","size_leaf_vector":"1"}},{"base_weights":[1.9069195E-2,3.7654343E-1,-4.325409E-1,5.12867E-1,-2.5312616E-2,-1.8187982E-1,-1.7254384E-1,5.8455783E-1,4.466915E-2,6.3361935E-2,-1.4100666E-1,4.466915E-2,2.183819E-1],"categories":[],"categories_nodes":[],"categories_segments":[],"categories_sizes":[],"default_left":[0,0,0,0,0,0,0,0,0,0,0,0,0],"id":10,"left_children":[1,3,5,7,-1,-1,9,11,-1,-1,-1,-1,-1],"loss_changes":[1.4543822E0,3.574437E-1,7.606459E-2,1.7334342E-2,0E0,0E0,4.4174394E-1,7.9009175E-2,0E0,0E0,0E0,0E0,0E0],"parents":[2147483647,0,0,1,1,2,2,3,3,6,6,7,7],"right_children":[2,4,6,8,-1,-1,10,12,-1,-1,-1,-1,-1],"split_conditions":[1E1,1.03E2,1.02E2,9E0,-2.5312616E-2,-1.8187982E-1,1.03E2,1.02E2,4.466915E-2,6.3361935E-2,-1.4100666E-1,4.466915E-2,2.183819E-1],"split_indices":[0,1,1,0,0,0,1,1,0,0,0,0,0],"split_type":[0,0,0,0,0,0,0,0,0,0,0,0,0],"sum_hessian":[7E0,4E0,3E0,3E0,1E0,1E0,2E0,2E0,1E0,1E0,1E0,1E0,1E0],"tree_param":{"num_deleted":"0","num_feature":"2","num_nodes":"13","size_leaf_vector":"1"}},{"base_weights":[1.6208649E-2,3.200615E-1,-3.6765957E-1,4.3593597E-1,-2.1515466E-2,-1.5459767E-1,-1.466624E-1,4.9687323E-1,3.7968636E-2,5.3857613E-2,-1.19855694E-1,3.7968636E-2,1.8562432E-1],"categories":[],"categories_nodes":[],"categories_segments":[],"categories_sizes":[],"default_left":[0,0,0,0,0,0,0,0,0,0,0,0,0],"id":11,"left_children":[1,3,5,7,-1,-1,9,11,-1,-1,-1,-1,-1],"loss_changes":[1.0507892E0,2.582509E-1,5.4956198E-2,1.2524247E-2,0E0,0E0,3.1915995E-1,5.708444E-2,0E0,0E0,0E0,0E0,0E0],"parents":[2147483647,0,0,1,1,2,2,3,3,6,6,7,7],"right_children":[2,4,6,8,-1,-1,10,12,-1,-1,-1,-1,-1],"split_conditions":[1E1,1.03E2,1.02E2,9E0,-2.1515466E-2,-1.5459767E-1,1.03E2,1.02E2,3.7968636E-2,5.3857613E-2,-1.19855694E-1,3.7968636E-2,1.8562432E-1],"split_indices":[0,1,1,0,0,0,1,1,0,0,0,0,0],"split_type":[0,0,0,0,0,0,0,0,0,0,0,0,0],"sum_hessian":[7E0,4E0,3E0,3E0,1E0,1E0,2E0,2E0,1E0,1E0,1E0,1E0,1E0],"tree_param":{"num_deleted":"0","num_feature":"2","num_nodes":"13","size_leaf_vector":"1"}},{"base_weights":[1.3777733E-2,2.7205276E-1,-3.125105E-1,3.7054634E-1,-1.8288232E-2,-1.3140793E-1,-1.2466303E-1,4.2234293E-1,3.2273486E-2,4.577923E-2,-1.018776E-1,3.2273486E-2,1.5778084E-1],"categories":[],"categories_nodes":[],"categories_segments":[],"categories_sizes":[],"default_left":[0,0,0,0,0,0,0,0,0,0,0,0,0],"id":12,"left_children":[1,3,5,7,-1,-1,9,11,-1,-1,-1,-1,-1],"loss_changes":[7.5919616E-1,1.8658721E-1,3.9705694E-2,9.048462E-3,0E0,0E0,2.3059477E-1,4.1243076E-2,0E0,0E0,0E0,0E0,0E0],"parents":[2147483647,0,0,1,1,2,2,3,3,6,6,7,7],"right_children":[2,4,6,8,-1,-1,10,12,-1,-1,-1,-1,-1],"split_conditions":[1E1,1.03E2,1.02E2,9E0,-1.8288232E-2,-1.3140793E-1,1.03E2,1.02E2,3.2273486E-2,4.577923E-2,-1.018776E-1,3.2273486E-2,1.5778084E-1],"split_indices":[0,1,1,0,0,0,1,1,0,0,0,0,0],"split_type":[0,0,0,0,0,0,0,0,0,0,0,0,0],"sum_hessian":[7E0,4E0,3E0,3E0,1E0,1E0,2E0,2E0,1E0,1E0,1E0,1E0,1E0],"tree_param":{"num_deleted":"0","num_feature":"2","num_nodes":"13","size_leaf_vector":"1"}},{"base_weights":[1.1711597E-2,2.3124543E-1,-2.6563358E-1,3.1496525E-1,-1.5545082E-2,-1.1169663E-1,-1.0596339E-1,3.5899225E-1,2.7432634E-2,3.8912203E-2,-8.659573E-2,2.7432634E-2,1.341139E-1],"categories":[],"categories_nodes":[],"categories_segments":[],"categories_sizes":[],"default_left":[0,0,0,0,0,0,0,0,0,0,0,0,0],"id":13,"left_children":[1,3,5,7,-1,-1,9,11,-1,-1,-1,-1,-1],"loss_changes":[5.4851973E-1,1.3481021E-1,2.8687388E-2,6.537199E-3,0E0,0E0,1.6660371E-1,2.9797733E-2,0E0,0E0,0E0,0E0,0E0],"parents":[2147483647,0,0,1,1,2,2,3,3,6,6,7,7],"right_children":[2,4,6,8,-1,-1,10,12,-1,-1,-1,-1,-1],"split_conditions":[1E1,1.03E2,1.02E2,9E0,-1.5545082E-2,-1.1169663E-1,1.03E2,1.02E2,2.7432634E-2,3.8912203E-2,-8.659573E-2,2.7432634E-2,1.341139E-1],"split_indices":[0,1,1,0,0,0,1,1,0,0,0,0,0],"split_type":[0,0,0,0,0,0,0,0,0,0,0,0,0],"sum_hessian":[7E0,4E0,3E0,3E0,1E0,1E0,2E0,2E0,1E0,1E0,1E0,1E0,1E0],"tree_param":{"num_deleted":"0","num_feature":"2","num_nodes":"13","size_leaf_vector":"1"}},{"base_weights":[9.955406E-3,1.9655915E-1,-2.2578812E-1,2.6772118E-1,-1.3213349E-2,-9.494191E-2,-9.006882E-2,3.0514398E-1,2.331791E-2,3.3075143E-2,-7.360611E-2,2.331791E-2,1.1399689E-1],"categories":[],"categories_nodes":[],"categories_segments":[],"categories_sizes":[],"default_left":[0,0,0,0,0,0,0,0,0,0,0,0,0],"id":14,"left_children":[1,3,5,7,-1,-1,9,11,-1,-1,-1,-1,-1],"loss_changes":[3.963057E-1,9.7400874E-2,2.0726413E-2,4.7228336E-3,0E0,0E0,1.2037003E-1,2.1528453E-2,0E0,0E0,0E0,0E0,0E0],"parents":[2147483647,0,0,1,1,2,2,3,3,6,6,7,7],"right_children":[2,4,6,8,-1,-1,10,12,-1,-1,-1,-1,-1],"split_conditions":[1E1,1.03E2,1.02E2,9E0,-1.3213349E-2,-9.494191E-2,1.03E2,1.02E2,2.331791E-2,3.3075143E-2,-7.360611E-2,2.331791E-2,1.1399689E-1],"split_indices":[0,1,1,0,0,0,1,1,0,0,0,0,0],"split_type":[0,0,0,0,0,0,0,0,0,0,0,0,0],"sum_hessian":[7E0,4E0,3E0,3E0,1E0,1E0,2E0,2E0,1E0,1E0,1E0,1E0,1E0],"tree_param":{"num_deleted":"0","num_feature":"2","num_nodes":"13","size_leaf_vector":"1"}},{"base_weights":[8.461475E-3,1.6707459E-1,-1.9192028E-1,2.2756195E-1,-1.1231232E-2,-8.0700874E-2,-7.655843E-2,2.5937143E-1,1.9820023E-2,2.8114129E-2,-6.256542E-2,1.9820023E-2,9.689713E-2],"categories":[],"categories_nodes":[],"categories_segments":[],"categories_sizes":[],"default_left":[0,0,0,0,0,0,0,0,0,0,0,0,0],"id":15,"left_children":[1,3,5,7,-1,-1,9,11,-1,-1,-1,-1,-1],"loss_changes":[2.8633037E-1,7.03713E-2,1.4975131E-2,3.4124851E-3,0E0,0E0,8.696833E-2,1.5554622E-2,0E0,0E0,0E0,0E0,0E0],"parents":[2147483647,0,0,1,1,2,2,3,3,6,6,7,7],"right_children":[2,4,6,8,-1,-1,10,12,-1,-1,-1,-1,-1],"split_conditions":[1E1,1.03E2,1.02E2,9E0,-1.1231232E-2,-8.0700874E-2,1.03E2,1.02E2,1.9820023E-2,2.8114129E-2,-6.256542E-2,1.9820023E-2,9.689713E-2],"split_indices":[0,1,1,0,0,0,1,1,0,0,0,0,0],"split_type":[0,0,0,0,0,0,0,0,0,0,0,0,0],"sum_hessian":[7E0,4E0,3E0,3E0,1E0,1E0,2E0,2E0,1E0,1E0,1E0,1E0,1E0],"tree_param":{"num_deleted":"0","num_feature":"2","num_nodes":"13","size_leaf_vector":"1"}},{"base_weights":[7.191658E-3,1.4201279E-1,-1.6313267E-1,1.9342709E-1,-9.546662E-3,-6.8595886E-2,-6.507492E-2,2.2046535E-1,1.6846849E-2,2.3896981E-2,-5.31807E-2,1.6846849E-2,8.236256E-2],"categories":[],"categories_nodes":[],"categories_segments":[],"categories_sizes":[],"default_left":[0,0,0,0,0,0,0,0,0,0,0,0,0],"id":16,"left_children":[1,3,5,7,-1,-1,9,11,-1,-1,-1,-1,-1],"loss_changes":[2.0687346E-1,5.084329E-2,1.0819517E-2,2.4657845E-3,0E0,0E0,6.2834695E-2,1.123859E-2,0E0,0E0,0E0,0E0,0E0],"parents":[2147483647,0,0,1,1,2,2,3,3,6,6,7,7],"right_children":[2,4,6,8,-1,-1,10,12,-1,-1,-1,-1,-1],"split_conditions":[1E1,1.03E2,1.02E2,9E0,-9.546662E-3,-6.8595886E-2,1.03E2,1.02E2,1.6846849E-2,2.3896981E-2,-5.31807E-2,1.6846849E-2,8.236256E-2],"split_indices":[0,1,1,0,0,0,1,1,0,0,0,0,0],"split_type":[0,0,0,0,0,0,0,0,0,0,0,0,0],"sum_hessian":[7E0,4E0,3E0,3E0,1E0,1E0,2E0,2E0,1E0,1E0,1E0,1E0,1E0],"tree_param":{"num_deleted":"0","num_feature":"2","num_nodes":"13","size_leaf_vector":"1"}},{"base_weights":[6.113529E-3,1.2071152E-1,-1.3866234E-1,1.6441345E-1,-8.114434E-3,-5.8306504E-2,-5.531311E-2,1.8739574E-1,1.4319993E-2,2.0312691E-2,-4.5203593E-2,1.4319993E-2,7.000809E-2],"categories":[],"categories_nodes":[],"categories_segments":[],"categories_sizes":[],"default_left":[0,0,0,0,0,0,0,0,0,0,0,0,0],"id":17,"left_children":[1,3,5,7,-1,-1,9,11,-1,-1,-1,-1,-1],"loss_changes":[1.4946632E-1,3.6733977E-2,7.817388E-3,1.7812848E-3,0E0,0E0,4.5398492E-2,8.119509E-3,0E0,0E0,0E0,0E0,0E0],"parents":[2147483647,0,0,1,1,2,2,3,3,6,6,7,7],"right_children":[2,4,6,8,-1,-1,10,12,-1,-1,-1,-1,-1],"split_conditions":[1E1,1.03E2,1.02E2,9E0,-8.114434E-3,-5.8306504E-2,1.03E2,1.02E2,1.4319993E-2,2.0312691E-2,-4.5203593E-2,1.4319993E-2,7.000809E-2],"split_indices":[0,1,1,0,0,0,1,1,0,0,0,0,0],"split_type":[0,0,0,0,0,0,0,0,0,0,0,0,0],"sum_hessian":[7E0,4E0,3E0,3E0,1E0,1E0,2E0,2E0,1E0,1E0,1E0,1E0,1E0],"tree_param":{"num_deleted":"0","num_feature":"2","num_nodes":"13","size_leaf_vector":"1"}},{"base_weights":[5.1965714E-3,1.0260467E-1,-1.178627E-1,1.3975143E-1,-6.8973545E-3,-4.9560357E-2,-4.7016144E-2,1.592865E-1,1.2171936E-2,1.7265702E-2,-3.842297E-2,1.2171936E-2,5.950699E-2],"categories":[],"categories_nodes":[],"categories_segments":[],"categories_sizes":[],"default_left":[0,0,0,0,0,0,0,0,0,0,0,0,0],"id":18,"left_children":[1,3,5,7,-1,-1,9,11,-1,-1,-1,-1,-1],"loss_changes":[1.0798903E-1,2.6540443E-2,5.64795E-3,1.2870729E-3,0E0,0E0,3.2800198E-2,5.8664978E-3,0E0,0E0,0E0,0E0,0E0],"parents":[2147483647,0,0,1,1,2,2,3,3,6,6,7,7],"right_children":[2,4,6,8,-1,-1,10,12,-1,-1,-1,-1,-1],"split_conditions":[1E1,1.03E2,1.02E2,9E0,-6.8973545E-3,-4.9560357E-2,1.03E2,1.02E2,1.2171936E-2,1.7265702E-2,-3.842297E-2,1.2171936E-2,5.950699E-2],"split_indices":[0,1,1,0,0,0,1,1,0,0,0,0,0],"split_type":[0,0,0,0,0,0,0,0,0,0,0,0,0],"sum_hessian":[7E0,4E0,3E0,3E0,1E0,1E0,2E0,2E0,1E0,1E0,1E0,1E0,1E0],"tree_param":{"num_deleted":"0","num_feature":"2","num_nodes":"13","size_leaf_vector":"1"}},{"base_weights":[4.4169426E-3,8.7213896E-2,-1.0018349E-1,1.1878872E-1,-5.8628083E-3,-4.2126276E-2,-3.996404E-2,1.3539378E-1,1.0346032E-2,1.4675904E-2,-3.2659724E-2,1.0346032E-2,5.0581172E-2],"categories":[],"categories_nodes":[],"categories_segments":[],"categories_sizes":[],"default_left":[0,0,0,0,0,0,0,0,0,0,0,0,0],"id":19,"left_children":[1,3,5,7,-1,-1,9,11,-1,-1,-1,-1,-1],"loss_changes":[7.802217E-2,1.9175556E-2,4.0805116E-3,9.300597E-4,0E0,0E0,2.3698393E-2,4.238803E-3,0E0,0E0,0E0,0E0,0E0],"parents":[2147483647,0,0,1,1,2,2,3,3,6,6,7,7],"right_children":[2,4,6,8,-1,-1,10,12,-1,-1,-1,-1,-1],"split_conditions":[1E1,1.03E2,1.02E2,9E0,-5.8628083E-3,-4.2126276E-2,1.03E2,1.02E2,1.0346032E-2,1.4675904E-2,-3.2659724E-2,1.0346032E-2,5.0581172E-2],"split_indices":[0,1,1,0,0,0,1,1,0,0,0,0,0],"split_type":[0,0,0,0,0,0,0,0,0,0,0,0,0],"sum_hessian":[7E0,4E0,3E0,3E0,1E0,1E0,2E0,2E0,1E0,1E0,1E0,1E0,1E0],"tree_param":{"num_deleted":"0","num_feature":"2","num_nodes":"13","size_leaf_vector":"1"}},{"base_weights":[3.7546158E-3,7.413177E-2,-8.515549E-2,1.0097027E-1,-4.98333E-3,-3.580742E-2,-3.396861E-2,1.1508433E-1,8.794213E-3,1.2474633E-2,-2.7760508E-2,8.794213E-3,4.299374E-2],"categories":[],"categories_nodes":[],"categories_segments":[],"categories_sizes":[],"default_left":[0,0,0,0,0,0,0,0,0,0,0,0,0],"id":20,"left_children":[1,3,5,7,-1,-1,9,11,-1,-1,-1,-1,-1],"loss_changes":[5.6370653E-2,1.3854237E-2,2.9484648E-3,6.718524E-4,0E0,0E0,1.7122004E-2,3.0623376E-3,0E0,0E0,0E0,0E0,0E0],"parents":[2147483647,0,0,1,1,2,2,3,3,6,6,7,7],"right_children":[2,4,6,8,-1,-1,10,12,-1,-1,-1,-1,-1],"split_conditions":[1E1,1.03E2,1.02E2,9E0,-4.98333E-3,-3.580742E-2,1.03E2,1.02E2,8.794213E-3,1.2474633E-2,-2.7760508E-2,8.794213E-3,4.299374E-2],"split_indices":[0,1,1,0,0,0,1,1,0,0,0,0,0],"split_type":[0,0,0,0,0,0,0,0,0,0,0,0,0],"sum_hessian":[7E0,4E0,3E0,3E0,1E0,1E0,2E0,2E0,1E0,1E0,1E0,1E0,1E0],"tree_param":{"num_deleted":"0","num_feature":"2","num_nodes":"13","size_leaf_vector":"1"}},{"base_weights":[3.191471E-3,6.301193E-2,-7.238197E-2,8.582497E-2,-4.236031E-3,-3.0436136E-2,-2.8873444E-2,9.7821556E-2,7.475281E-3,1.0603524E-2,-2.3596574E-2,7.475281E-3,3.654442E-2],"categories":[],"categories_nodes":[],"categories_segments":[],"categories_sizes":[],"default_left":[0,0,0,0,0,0,0,0,0,0,0,0,0],"id":21,"left_children":[1,3,5,7,-1,-1,9,11,-1,-1,-1,-1,-1],"loss_changes":[4.0727634E-2,1.0009937E-2,2.1301676E-3,4.8524328E-4,0E0,0E0,1.23708155E-2,2.21226E-3,0E0,0E0,0E0,0E0,0E0],"parents":[2147483647,0,0,1,1,2,2,3,3,6,6,7,7],"right_children":[2,4,6,8,-1,-1,10,12,-1,-1,-1,-1,-1],"split_conditions":[1E1,1.03E2,1.02E2,9E0,-4.236031E-3,-3.0436136E-2,1.03E2,1.02E2,7.475281E-3,1.0603524E-2,-2.3596574E-2,7.475281E-3,3.654442E-2],"split_indices":[0,1,1,0,0,0,1,1,0,0,0,0,0],"split_type":[0,0,0,0,0,0,0,0,0,0,0,0,0],"sum_hessian":[7E0,4E0,3E0,3E0,1E0,1E0,2E0,2E0,1E0,1E0,1E0,1E0,1E0],"tree_param":{"num_deleted":"0","num_feature":"2","num_nodes":"13","size_leaf_vector":"1"}},{"base_weights":[2.7122498E-3,5.3559113E-2,-6.152439E-2,7.295036E-2,-3.6008835E-3,-2.5870515E-2,-2.454249E-2,8.314768E-2,6.35376E-3,9.012795E-3,-2.0056916E-2,6.35376E-3,3.10627E-2],"categories":[],"categories_nodes":[],"categories_segments":[],"categories_sizes":[],"default_left":[0,0,0,0,0,0,0,0,0,0,0,0,0],"id":22,"left_children":[1,3,5,7,-1,-1,9,11,-1,-1,-1,-1,-1],"loss_changes":[2.9425045E-2,7.232272E-3,1.5389659E-3,3.5070628E-4,0E0,0E0,8.937672E-3,1.5985332E-3,0E0,0E0,0E0,0E0,0E0],"parents":[2147483647,0,0,1,1,2,2,3,3,6,6,7,7],"right_children":[2,4,6,8,-1,-1,10,12,-1,-1,-1,-1,-1],"split_conditions":[1E1,1.03E2,1.02E2,9E0,-3.6008835E-3,-2.5870515E-2,1.03E2,1.02E2,6.35376E-3,9.012795E-3,-2.0056916E-2,6.35376E-3,3.10627E-2],"split_indices":[0,1,1,0,0,0,1,1,0,0,0,0,0],"split_type":[0,0,0,0,0,0,0,0,0,0,0,0,0],"sum_hessian":[7E0,4E0,3E0,3E0,1E0,1E0,2E0,2E0,1E0,1E0,1E0,1E0,1E0],"tree_param":{"num_deleted":"0","num_feature":"2","num_nodes":"13","size_leaf_vector":"1"}},{"base_weights":[2.3050308E-3,4.5524597E-2,-5.2295685E-2,6.200695E-2,-3.0607225E-3,-2.1989822E-2,-2.0861307E-2,7.0674896E-2,5.400467E-3,7.6606753E-3,-1.7048264E-2,5.400467E-3,2.6403237E-2],"categories":[],"categories_nodes":[],"categories_segments":[],"categories_sizes":[],"default_left":[0,0,0,0,0,0,0,0,0,0,0,0,0],"id":23,"left_children":[1,3,5,7,-1,-1,9,11,-1,-1,-1,-1,-1],"loss_changes":[2.1259293E-2,5.2251816E-3,1.1118343E-3,2.5348738E-4,0E0,0E0,6.457289E-3,1.1550868E-3,0E0,0E0,0E0,0E0,0E0],"parents":[2147483647,0,0,1,1,2,2,3,3,6,6,7,7],"right_children":[2,4,6,8,-1,-1,10,12,-1,-1,-1,-1,-1],"split_conditions":[1E1,1.03E2,1.02E2,9E0,-3.0607225E-3,-2.1989822E-2,1.03E2,1.02E2,5.400467E-3,7.6606753E-3,-1.7048264E-2,5.400467E-3,2.6403237E-2],"split_indices":[0,1,1,0,0,0,1,1,0,0,0,0,0],"split_type":[0,0,0,0,0,0,0,0,0,0,0,0,0],"sum_hessian":[7E0,4E0,3E0,3E0,1E0,1E0,2E0,2E0,1E0,1E0,1E0,1E0,1E0],"tree_param":{"num_deleted":"0","num_feature":"2","num_nodes":"13","size_leaf_vector":"1"}},{"base_weights":[1.958847E-3,3.8695525E-2,-4.4451714E-2,5.2705765E-2,-2.6018145E-3,-1.8691637E-2,-1.7731985E-2,6.0073853E-2,4.5902254E-3,6.5116887E-3,-1.4491082E-2,4.5902254E-3,2.244301E-2],"categories":[],"categories_nodes":[],"categories_segments":[],"categories_sizes":[],"default_left":[0,0,0,0,0,0,0,0,0,0,0,0,0],"id":24,"left_children":[1,3,5,7,-1,-1,9,11,-1,-1,-1,-1,-1],"loss_changes":[1.5359841E-2,3.7753042E-3,8.033896E-4,1.8323865E-4,0E0,0E0,4.6654753E-3,8.3470345E-4,0E0,0E0,0E0,0E0,0E0],"parents":[2147483647,0,0,1,1,2,2,3,3,6,6,7,7],"right_children":[2,4,6,8,-1,-1,10,12,-1,-1,-1,-1,-1],"split_conditions":[1E1,1.03E2,1.02E2,9E0,-2.6018145E-3,-1.8691637E-2,1.03E2,1.02E2,4.5902254E-3,6.5116887E-3,-1.4491082E-2,4.5902254E-3,2.244301E-2],"split_indices":[0,1,1,0,0,0,1,1,0,0,0,0,0],"split_type":[0,0,0,0,0,0,0,0,0,0,0,0,0],"sum_hessian":[7E0,4E0,3E0,3E0,1E0,1E0,2E0,2E0,1E0,1E0,1E0,1E0,1E0],"tree_param":{"num_deleted":"0","num_feature":"2","num_nodes":"13","size_leaf_vector":"1"}},{"base_weights":[1.6655922E-3,3.2891847E-2,-3.7783623E-2,4.480076E-2,-2.2115707E-3,-1.5887834E-2,-1.5071869E-2,5.1063538E-2,3.9018632E-3,5.5349353E-3,-1.2317277E-2,3.9018632E-3,1.907673E-2],"categories":[],"categories_nodes":[],"categories_segments":[],"categories_sizes":[],"default_left":[0,0,0,0,0,0,0,0,0,0,0,0,0],"id":25,"left_children":[1,3,5,7,-1,-1,9,11,-1,-1,-1,-1,-1],"loss_changes":[1.1097582E-2,2.7277544E-3,5.804803E-4,1.3234653E-4,0E0,0E0,3.3707563E-3,6.030146E-4,0E0,0E0,0E0,0E0,0E0],"parents":[2147483647,0,0,1,1,2,2,3,3,6,6,7,7],"right_children":[2,4,6,8,-1,-1,10,12,-1,-1,-1,-1,-1],"split_conditions":[1E1,1.03E2,1.02E2,9E0,-2.2115707E-3,-1.5887834E-2,1.03E2,1.02E2,3.9018632E-3,5.5349353E-3,-1.2317277E-2,3.9018632E-3,1.907673E-2],"split_indices":[0,1,1,0,0,0,1,1,0,0,0,0,0],"split_type":[0,0,0,0,0,0,0,0,0,0,0,0,0],"sum_hessian":[7E0,4E0,3E0,3E0,1E0,1E0,2E0,2E0,1E0,1E0,1E0,1E0,1E0],"tree_param":{"num_deleted":"0","num_feature":"2","num_nodes":"13","size_leaf_vector":"1"}},{"base_weights":[1.4157295E-3,2.7957916E-2,-3.2115936E-2,3.8080215E-2,-1.8796922E-3,-1.3504601E-2,-1.2811025E-2,4.3403625E-2,3.316498E-3,4.7046663E-3,-1.0469628E-2,3.316498E-3,1.6215134E-2],"categories":[],"categories_nodes":[],"categories_segments":[],"categories_sizes":[],"default_left":[0,0,0,0,0,0,0,0,0,0,0,0,0],"id":26,"left_children":[1,3,5,7,-1,-1,9,11,-1,-1,-1,-1,-1],"loss_changes":[8.017925E-3,1.9707023E-3,4.1939458E-4,9.563891E-5,0E0,0E0,2.4353438E-3,4.357025E-4,0E0,0E0,0E0,0E0,0E0],"parents":[2147483647,0,0,1,1,2,2,3,3,6,6,7,7],"right_children":[2,4,6,8,-1,-1,10,12,-1,-1,-1,-1,-1],"split_conditions":[1E1,1.03E2,1.02E2,9E0,-1.8796922E-3,-1.3504601E-2,1.03E2,1.02E2,3.316498E-3,4.7046663E-3,-1.0469628E-2,3.316498E-3,1.6215134E-2],"split_indices":[0,1,1,0,0,0,1,1,0,0,0,0,0],"split_type":[0,0,0,0,0,0,0,0,0,0,0,0,0],"sum_hessian":[7E0,4E0,3E0,3E0,1E0,1E0,2E0,2E0,1E0,1E0,1E0,1E0,1E0],"tree_param":{"num_deleted":"0","num_feature":"2","num_nodes":"13","size_leaf_vector":"1"}},{"base_weights":[1.2040138E-3,2.37648E-2,-2.7297974E-2,3.236866E-2,-1.5975953E-3,-1.1478997E-2,-1.0888417E-2,3.6893208E-2,2.8192522E-3,3.9991383E-3,-8.898926E-3,2.8192522E-3,1.3782692E-2],"categories":[],"categories_nodes":[],"categories_segments":[],"categories_sizes":[],"default_left":[0,0,0,0,0,0,0,0,0,0,0,0,0],"id":27,"left_children":[1,3,5,7,-1,-1,9,11,-1,-1,-1,-1,-1],"loss_changes":[5.792949E-3,1.4238094E-3,3.0311896E-4,6.903242E-5,0E0,0E0,1.7595267E-3,3.1469064E-4,0E0,0E0,0E0,0E0,0E0],"parents":[2147483647,0,0,1,1,2,2,3,3,6,6,7,7],"right_children":[2,4,6,8,-1,-1,10,12,-1,-1,-1,-1,-1],"split_conditions":[1E1,1.03E2,1.02E2,9E0,-1.5975953E-3,-1.1478997E-2,1.03E2,1.02E2,2.8192522E-3,3.9991383E-3,-8.898926E-3,2.8192522E-3,1.3782692E-2],"split_indices":[0,1,1,0,0,0,1,1,0,0,0,0,0],"split_type":[0,0,0,0,0,0,0,0,0,0,0,0,0],"sum_hessian":[7E0,4E0,3E0,3E0,1E0,1E0,2E0,2E0,1E0,1E0,1E0,1E0,1E0],"tree_param":{"num_deleted":"0","num_feature":"2","num_nodes":"13","size_leaf_vector":"1"}},{"base_weights":[1.0237694E-3,2.0200348E-2,-2.3202896E-2,2.7513504E-2,-1.3578415E-3,-9.757233E-3,-9.254456E-3,3.1359356E-2,2.3963929E-3,3.3994676E-3,-7.563973E-3,2.3963929E-3,1.1715317E-2],"categories":[],"categories_nodes":[],"categories_segments":[],"categories_sizes":[],"default_left":[0,0,0,0,0,0,0,0,0,0,0,0,0],"id":28,"left_children":[1,3,5,7,-1,-1,9,11,-1,-1,-1,-1,-1],"loss_changes":[4.185383E-3,1.0286733E-3,2.1907245E-4,4.9871625E-5,0E0,0E0,1.2712886E-3,2.2735796E-4,0E0,0E0,0E0,0E0,0E0],"parents":[2147483647,0,0,1,1,2,2,3,3,6,6,7,7],"right_children":[2,4,6,8,-1,-1,10,12,-1,-1,-1,-1,-1],"split_conditions":[1E1,1.03E2,1.02E2,9E0,-1.3578415E-3,-9.757233E-3,1.03E2,1.02E2,2.3963929E-3,3.3994676E-3,-7.563973E-3,2.3963929E-3,1.1715317E-2],"split_indices":[0,1,1,0,0,0,1,1,0,0,0,0,0],"split_type":[0,0,0,0,0,0,0,0,0,0,0,0,0],"sum_hessian":[7E0,4E0,3E0,3E0,1E0,1E0,2E0,2E0,1E0,1E0,1E0,1E0,1E0],"tree_param":{"num_deleted":"0","num_feature":"2","num_nodes":"13","size_leaf_vector":"1"}},{"base_weights":[8.7070465E-4,1.7170716E-2,-1.9721985E-2,2.3386955E-2,-1.1541367E-3,-8.293534E-3,-7.865906E-3,2.6655832E-2,2.0370483E-3,2.8896332E-3,-6.429291E-3,2.0370483E-3,9.958077E-3],"categories":[],"categories_nodes":[],"categories_segments":[],"categories_sizes":[],"default_left":[0,0,0,0,0,0,0,0,0,0,0,0,0],"id":29,"left_children":[1,3,5,7,-1,-1,9,11,-1,-1,-1,-1,-1],"loss_changes":[3.0239292E-3,7.432321E-4,1.5829504E-4,3.601401E-5,0E0,0E0,9.1851054E-4,1.6424106E-4,0E0,0E0,0E0,0E0,0E0],"parents":[2147483647,0,0,1,1,2,2,3,3,6,6,7,7],"right_children":[2,4,6,8,-1,-1,10,12,-1,-1,-1,-1,-1],"split_conditions":[1E1,1.03E2,1.02E2,9E0,-1.1541367E-3,-8.293534E-3,1.03E2,1.02E2,2.0370483E-3,2.8896332E-3,-6.429291E-3,2.0370483E-3,9.958077E-3],"split_indices":[0,1,1,0,0,0,1,1,0,0,0,0,0],"split_type":[0,0,0,0,0,0,0,0,0,0,0,0,0],"sum_hessian":[7E0,4E0,3E0,3E0,1E0,1E0,2E0,2E0,1E0,1E0,1E0,1E0,1E0],"tree_param":{"num_deleted":"0","num_feature":"2","num_nodes":"13","size_leaf_vector":"1"}},{"base_weights":[7.4005127E-4,1.45957945E-2,-1.676464E-2,1.9879341E-2,-9.807587E-4,-7.049561E-3,-6.6871643E-3,2.265803E-2,1.7314912E-3,2.4559023E-3,-5.465126E-3,1.7314912E-3,8.464623E-3],"categories":[],"categories_nodes":[],"categories_segments":[],"categories_sizes":[],"default_left":[0,0,0,0,0,0,0,0,0,0,0,0,0],"id":30,"left_children":[1,3,5,7,-1,-1,9,11,-1,-1,-1,-1,-1],"loss_changes":[2.1850173E-3,5.369419E-4,1.1430401E-4,2.6029767E-5,0E0,0E0,6.636023E-4,1.1868309E-4,0E0,0E0,0E0,0E0,0E0],"parents":[2147483647,0,0,1,1,2,2,3,3,6,6,7,7],"right_children":[2,4,6,8,-1,-1,10,12,-1,-1,-1,-1,-1],"split_conditions":[1E1,1.03E2,1.02E2,9E0,-9.807587E-4,-7.049561E-3,1.03E2,1.02E2,1.7314912E-3,2.4559023E-3,-5.465126E-3,1.7314912E-3,8.464623E-3],"split_indices":[0,1,1,0,0,0,1,1,0,0,0,0,0],"split_type":[0,0,0,0,0,0,0,0,0,0,0,0,0],"sum_hessian":[7E0,4E0,3E0,3E0,1E0,1E0,2E0,2E0,1E0,1E0,1E0,1E0,1E0],"tree_param":{"num_deleted":"0","num_feature":"2","num_nodes":"13","size_leaf_vector":"1"}},{"base_weights":[6.289482E-4,1.2406158E-2,-1.4249802E-2,1.6897202E-2,-8.337021E-4,-5.9921267E-3,-5.683899E-3,1.9259134E-2,1.4717103E-3,2.0874024E-3,-4.645157E-3,1.4717103E-3,7.194901E-3],"categories":[],"categories_nodes":[],"categories_segments":[],"categories_sizes":[],"default_left":[0,0,0,0,0,0,0,0,0,0,0,0,0],"id":31,"left_children":[1,3,5,7,-1,-1,9,11,-1,-1,-1,-1,-1],"loss_changes":[1.5786266E-3,3.8794358E-4,8.259452E-5,1.8812949E-5,0E0,0E0,4.794072E-4,8.5757696E-5,0E0,0E0,0E0,0E0,0E0],"parents":[2147483647,0,0,1,1,2,2,3,3,6,6,7,7],"right_children":[2,4,6,8,-1,-1,10,12,-1,-1,-1,-1,-1],"split_conditions":[1E1,1.03E2,1.02E2,9E0,-8.337021E-4,-5.9921267E-3,1.03E2,1.02E2,1.4717103E-3,2.0874024E-3,-4.645157E-3,1.4717103E-3,7.194901E-3],"split_indices":[0,1,1,0,0,0,1,1,0,0,0,0,0],"split_type":[0,0,0,0,0,0,0,0,0,0,0,0,0],"sum_hessian":[7E0,4E0,3E0,3E0,1E0,1E0,2E0,2E0,1E0,1E0,1E0,1E0,1E0],"tree_param":{"num_deleted":"0","num_feature":"2","num_nodes":"13","size_leaf_vector":"1"}},{"base_weights":[5.350113E-4,1.0545349E-2,-1.2111664E-2,1.4362335E-2,-7.083893E-4,-5.093193E-3,-4.8306785E-3,1.6370138E-2,1.2508393E-3,1.7744065E-3,-3.9482117E-3,1.2508393E-3,6.115723E-3],"categories":[],"categories_nodes":[],"categories_segments":[],"categories_sizes":[],"default_left":[0,0,0,0,0,0,0,0,0,0,0,0,0],"id":32,"left_children":[1,3,5,7,-1,-1,9,11,-1,-1,-1,-1,-1],"loss_changes":[1.1405016E-3,2.8023624E-4,5.9694867E-5,1.3606332E-5,0E0,0E0,3.4636905E-4,6.198161E-5,0E0,0E0,0E0,0E0,0E0],"parents":[2147483647,0,0,1,1,2,2,3,3,6,6,7,7],"right_children":[2,4,6,8,-1,-1,10,12,-1,-1,-1,-1,-1],"split_conditions":[1E1,1.03E2,1.02E2,9E0,-7.083893E-4,-5.093193E-3,1.03E2,1.02E2,1.2508393E-3,1.7744065E-3,-3.9482117E-3,1.2508393E-3,6.115723E-3],"split_indices":[0,1,1,0,0,0,1,1,0,0,0,0,0],"split_type":[0,0,0,0,0,0,0,0,0,0,0,0,0],"sum_hessian":[7E0,4E0,3E0,3E0,1E0,1E0,2E0,2E0,1E0,1E0,1E0,1E0,1E0],"tree_param":{"num_deleted":"0","num_feature":"2","num_nodes":"13","size_leaf_vector":"1"}},{"base_weights":[4.5490265E-4,8.963776E-3,-1.0294914E-2,1.2207985E-2,-6.0195924E-4,-4.3293E-3,-4.105886E-3,1.3914744E-2,1.0631562E-3,1.5083314E-3,-3.3559802E-3,1.0631562E-3,5.1984787E-3],"categories":[],"categories_nodes":[],"categories_segments":[],"categories_sizes":[],"default_left":[0,0,0,0,0,0,0,0,0,0,0,0,0],"id":33,"left_children":[1,3,5,7,-1,-1,9,11,-1,-1,-1,-1,-1],"loss_changes":[8.2403194E-4,2.0244552E-4,4.3141365E-5,9.838492E-6,0E0,0E0,2.502621E-4,4.479487E-5,0E0,0E0,0E0,0E0,0E0],"parents":[2147483647,0,0,1,1,2,2,3,3,6,6,7,7],"right_children":[2,4,6,8,-1,-1,10,12,-1,-1,-1,-1,-1],"split_conditions":[1E1,1.03E2,1.02E2,9E0,-6.0195924E-4,-4.3293E-3,1.03E2,1.02E2,1.0631562E-3,1.5083314E-3,-3.3559802E-3,1.0631562E-3,5.1984787E-3],"split_indices":[0,1,1,0,0,0,1,1,0,0,0,0,0],"split_type":[0,0,0,0,0,0,0,0,0,0,0,0,0],"sum_hessian":[7E0,4E0,3E0,3E0,1E0,1E0,2E0,2E0,1E0,1E0,1E0,1E0,1E0],"tree_param":{"num_deleted":"0","num_feature":"2","num_nodes":"13","size_leaf_vector":"1"}},{"base_weights":[3.8671494E-4,7.618713E-3,-8.749962E-3,1.0375977E-2,-5.115509E-4,-3.6798478E-3,-3.4891765E-3,1.1826833E-2,9.0351107E-4,1.2823106E-3,-2.8524399E-3,9.0351107E-4,4.418564E-3],"categories":[],"categories_nodes":[],"categories_segments":[],"categories_sizes":[],"default_left":[0,0,0,0,0,0,0,0,0,0,0,0,0],"id":34,"left_children":[1,3,5,7,-1,-1,9,11,-1,-1,-1,-1,-1],"loss_changes":[5.9527485E-4,1.4623482E-4,3.119305E-5,7.119088E-6,0E0,0E0,1.8082657E-4,3.2378914E-5,0E0,0E0,0E0,0E0,0E0],"parents":[2147483647,0,0,1,1,2,2,3,3,6,6,7,7],"right_children":[2,4,6,8,-1,-1,10,12,-1,-1,-1,-1,-1],"split_conditions":[1E1,1.03E2,1.02E2,9E0,-5.115509E-4,-3.6798478E-3,1.03E2,1.02E2,9.0351107E-4,1.2823106E-3,-2.8524399E-3,9.0351107E-4,4.418564E-3],"split_indices":[0,1,1,0,0,0,1,1,0,0,0,0,0],"split_type":[0,0,0,0,0,0,0,0,0,0,0,0,0],"sum_hessian":[7E0,4E0,3E0,3E0,1E0,1E0,2E0,2E0,1E0,1E0,1E0,1E0,1E0],"tree_param":{"num_deleted":"0","num_feature":"2","num_nodes":"13","size_leaf_vector":"1"}},{"base_weights":[3.2901764E-4,6.47583E-3,-7.4367523E-3,8.81958E-3,-4.3487552E-4,-3.1276704E-3,-2.9652913E-3,1.0052999E-2,7.678986E-4,1.0900497E-3,-2.424431E-3,7.678986E-4,3.755951E-3],"categories":[],"categories_nodes":[],"categories_segments":[],"categories_sizes":[],"default_left":[0,0,0,0,0,0,0,0,0,0,0,0,0],"id":35,"left_children":[1,3,5,7,-1,-1,9,11,-1,-1,-1,-1,-1],"loss_changes":[4.30037E-4,1.05660685E-4,2.2542634E-5,5.1521347E-6,0E0,0E0,1.3064498E-4,2.3407978E-5,0E0,0E0,0E0,0E0,0E0],"parents":[2147483647,0,0,1,1,2,2,3,3,6,6,7,7],"right_children":[2,4,6,8,-1,-1,10,12,-1,-1,-1,-1,-1],"split_conditions":[1E1,1.03E2,1.02E2,9E0,-4.3487552E-4,-3.1276704E-3,1.03E2,1.02E2,7.678986E-4,1.0900497E-3,-2.424431E-3,7.678986E-4,3.755951E-3],"split_indices":[0,1,1,0,0,0,1,1,0,0,0,0,0],"split_type":[0,0,0,0,0,0,0,0,0,0,0,0,0],"sum_hessian":[7E0,4E0,3E0,3E0,1E0,1E0,2E0,2E0,1E0,1E0,1E0,1E0,1E0],"tree_param":{"num_deleted":"0","num_feature":"2","num_nodes":"13","size_leaf_vector":"1"}},{"base_weights":[2.799034E-4,5.504608E-3,-6.3209534E-3,7.496834E-3,-3.6964417E-4,-2.6584626E-3,-2.5202434E-3,8.544922E-3,6.528855E-4,9.2639925E-4,-2.0605088E-3,6.528855E-4,3.1923295E-3],"categories":[],"categories_nodes":[],"categories_segments":[],"categories_sizes":[],"default_left":[0,0,0,0,0,0,0,0,0,0,0,0,0],"id":36,"left_children":[1,3,5,7,-1,-1,9,11,-1,-1,-1,-1,-1],"loss_changes":[3.1069457E-4,7.634288E-5,1.6290913E-5,3.7094287E-6,0E0,0E0,9.436538E-5,1.6891281E-5,0E0,0E0,0E0,0E0,0E0],"parents":[2147483647,0,0,1,1,2,2,3,3,6,6,7,7],"right_children":[2,4,6,8,-1,-1,10,12,-1,-1,-1,-1,-1],"split_conditions":[1E1,1.03E2,1.02E2,9E0,-3.6964417E-4,-2.6584626E-3,1.03E2,1.02E2,6.528855E-4,9.2639925E-4,-2.0605088E-3,6.528855E-4,3.1923295E-3],"split_indices":[0,1,1,0,0,0,1,1,0,0,0,0,0],"split_type":[0,0,0,0,0,0,0,0,0,0,0,0,0],"sum_hessian":[7E0,4E0,3E0,3E0,1E0,1E0,2E0,2E0,1E0,1E0,1E0,1E0,1E0],"tree_param":{"num_deleted":"0","num_feature":"2","num_nodes":"13","size_leaf_vector":"1"}},{"base_weights":[2.3794174E-4,4.6791076E-3,-5.373001E-3,6.372452E-3,-3.1414034E-4,-2.259636E-3,-2.1425884E-3,7.2631836E-3,5.5503845E-4,7.8735355E-4,-1.7515183E-3,5.5503845E-4,2.7133944E-3],"categories":[],"categories_nodes":[],"categories_segments":[],"categories_sizes":[],"default_left":[0,0,0,0,0,0,0,0,0,0,0,0,0],"id":37,"left_children":[1,3,5,7,-1,-1,9,11,-1,-1,-1,-1,-1],"loss_changes":[2.2449387E-4,5.5155317E-5,1.1761149E-5,2.6748894E-6,0E0,0E0,6.817776E-5,1.2195727E-5,0E0,0E0,0E0,0E0,0E0],"parents":[2147483647,0,0,1,1,2,2,3,3,6,6,7,7],"right_children":[2,4,6,8,-1,-1,10,12,-1,-1,-1,-1,-1],"split_conditions":[1E1,1.03E2,1.02E2,9E0,-3.1414034E-4,-2.259636E-3,1.03E2,1.02E2,5.5503845E-4,7.8735355E-4,-1.7515183E-3,5.5503845E-4,2.7133944E-3],"split_indices":[0,1,1,0,0,0,1,1,0,0,0,0,0],"split_type":[0,0,0,0,0,0,0,0,0,0,0,0,0],"sum_hessian":[7E0,4E0,3E0,3E0,1E0,1E0,2E0,2E0,1E0,1E0,1E0,1E0,1E0],"tree_param":{"num_deleted":"0","num_feature":"2","num_nodes":"13","size_leaf_vector":"1"}},{"base_weights":[2.0170212E-4,3.9764405E-3,-4.5671463E-3,5.4159164E-3,-2.6721956E-4,-1.9208909E-3,-1.8208822E-3,6.173452E-3,4.714966E-4,6.6947937E-4,-1.4888764E-3,4.714966E-4,2.3065568E-3],"categories":[],"categories_nodes":[],"categories_segments":[],"categories_sizes":[],"default_left":[0,0,0,0,0,0,0,0,0,0,0,0,0],"id":38,"left_children":[1,3,5,7,-1,-1,9,11,-1,-1,-1,-1,-1],"loss_changes":[1.6217022E-4,3.985501E-5,8.5075735E-6,1.946115E-6,0E0,0E0,4.9274397E-5,8.8324305E-6,0E0,0E0,0E0,0E0,0E0],"parents":[2147483647,0,0,1,1,2,2,3,3,6,6,7,7],"right_children":[2,4,6,8,-1,-1,10,12,-1,-1,-1,-1,-1],"split_conditions":[1E1,1.03E2,1.02E2,9E0,-2.6721956E-4,-1.9208909E-3,1.03E2,1.02E2,4.714966E-4,6.6947937E-4,-1.4888764E-3,4.714966E-4,2.3065568E-3],"split_indices":[0,1,1,0,0,0,1,1,0,0,0,0,0],"split_type":[0,0,0,0,0,0,0,0,0,0,0,0,0],"sum_hessian":[7E0,4E0,3E0,3E0,1E0,1E0,2E0,2E0,1E0,1E0,1E0,1E0,1E0],"tree_param":{"num_deleted":"0","num_feature":"2","num_nodes":"13","size_leaf_vector":"1"}},{"base_weights":[1.707077E-4,3.3790588E-3,-3.8824081E-3,4.6024323E-3,-2.2716523E-4,-1.6324997E-3,-1.5487671E-3,5.2464805E-3,4.0054324E-4,5.687714E-4,-1.2657166E-3,4.0054324E-4,1.960373E-3],"categories":[],"categories_nodes":[],"categories_segments":[],"categories_sizes":[],"default_left":[0,0,0,0,0,0,0,0,0,0,0,0,0],"id":39,"left_children":[1,3,5,7,-1,-1,9,11,-1,-1,-1,-1,-1],"loss_changes":[1.1714943E-4,2.8786097E-5,6.1271166E-6,1.412358E-6,0E0,0E0,3.5593723E-5,6.389928E-6,0E0,0E0,0E0,0E0,0E0],"parents":[2147483647,0,0,1,1,2,2,3,3,6,6,7,7],"right_children":[2,4,6,8,-1,-1,10,12,-1,-1,-1,-1,-1],"split_conditions":[1E1,1.03E2,1.02E2,9E0,-2.2716523E-4,-1.6324997E-3,1.03E2,1.02E2,4.0054324E-4,5.687714E-4,-1.2657166E-3,4.0054324E-4,1.960373E-3],"split_indices":[0,1,1,0,0,0,1,1,0,0,0,0,0],"split_type":[0,0,0,0,0,0,0,0,0,0,0,0,0],"sum_hessian":[7E0,4E0,3E0,3E0,1E0,1E0,2E0,2E0,1E0,1E0,1E0,1E0,1E0],"tree_param":{"num_deleted":"0","num_feature":"2","num_nodes":"13","size_leaf_vector":"1"}},{"base_weights":[1.4543533E-4,2.872467E-3,-3.2997131E-3,3.911972E-3,-1.9283296E-4,-1.3875961E-3,-1.3160706E-3,4.459381E-3,3.4046173E-4,4.835129E-4,-1.0757446E-3,3.4046173E-4,1.6662598E-3],"categories":[],"categories_nodes":[],"categories_segments":[],"categories_sizes":[],"default_left":[0,0,0,0,0,0,0,0,0,0,0,0,0],"id":40,"left_children":[1,3,5,7,-1,-1,9,11,-1,-1,-1,-1,-1],"loss_changes":[8.463855E-5,2.078509E-5,4.4308763E-6,1.0200092E-6,0E0,0E0,2.5715235E-5,4.6158893E-6,0E0,0E0,0E0,0E0,0E0],"parents":[2147483647,0,0,1,1,2,2,3,3,6,6,7,7],"right_children":[2,4,6,8,-1,-1,10,12,-1,-1,-1,-1,-1],"split_conditions":[1E1,1.03E2,1.02E2,9E0,-1.9283296E-4,-1.3875961E-3,1.03E2,1.02E2,3.4046173E-4,4.835129E-4,-1.0757446E-3,3.4046173E-4,1.6662598E-3],"split_indices":[0,1,1,0,0,0,1,1,0,0,0,0,0],"split_type":[0,0,0,0,0,0,0,0,0,0,0,0,0],"sum_hessian":[7E0,4E0,3E0,3E0,1E0,1E0,2E0,2E0,1E0,1E0,1E0,1E0,1E0],"tree_param":{"num_deleted":"0","num_feature":"2","num_nodes":"13","size_leaf_vector":"1"}},{"base_weights":[1.2397766E-4,2.4421692E-3,-2.8047562E-3,9.976388E-4,-1.6365052E-4,-1.1793138E-3,-1.1189779E-3,4.108429E-4,-9.14383E-4],"categories":[],"categories_nodes":[],"categories_segments":[],"categories_sizes":[],"default_left":[0,0,0,0,0,0,0,0,0],"id":41,"left_children":[1,3,5,-1,-1,-1,7,-1,-1],"loss_changes":[6.116462E-5,1.5008991E-5,3.1959426E-6,0E0,0E0,0E0,1.857451E-5,0E0,0E0],"parents":[2147483647,0,0,1,1,2,2,6,6],"right_children":[2,4,6,-1,-1,-1,8,-1,-1],"split_conditions":[1E1,1.03E2,1.02E2,9.976388E-4,-1.6365052E-4,-1.1793138E-3,1.03E2,4.108429E-4,-9.14383E-4],"split_indices":[0,1,1,0,0,0,1,0,0],"split_type":[0,0,0,0,0,0,0,0,0],"sum_hessian":[7E0,4E0,3E0,3E0,1E0,1E0,2E0,1E0,1E0],"tree_param":{"num_deleted":"0","num_feature":"2","num_nodes":"9","size_leaf_vector":"1"}},{"base_weights":[-2.002716E-5,1.8753052E-3,-2.3841858E-3,2.5758743E-3,-1.3904572E-4,-1.0025025E-3,-9.5113117E-4,3.124237E-3,1.3961793E-4,3.490448E-4,-7.770539E-4,1.3961793E-4,1.2662888E-3],"categories":[],"categories_nodes":[],"categories_segments":[],"categories_sizes":[],"default_left":[0,0,0,0,0,0,0,0,0,0,0,0,0],"id":42,"left_children":[1,3,5,7,-1,-1,9,11,-1,-1,-1,-1,-1],"loss_changes":[4.0318006E-5,9.3863055E-6,2.3101657E-6,3.1752388E-6,0E0,0E0,1.3411492E-5,6.783659E-6,0E0,0E0,0E0,0E0,0E0],"parents":[2147483647,0,0,1,1,2,2,3,3,6,6,7,7],"right_children":[2,4,6,8,-1,-1,10,12,-1,-1,-1,-1,-1],"split_conditions":[1E1,1.03E2,1.02E2,9E0,-1.3904572E-4,-1.0025025E-3,1.03E2,1.02E2,1.3961793E-4,3.490448E-4,-7.770539E-4,1.3961793E-4,1.2662888E-3],"split_indices":[0,1,1,0,0,0,1,1,0,0,0,0,0],"split_type":[0,0,0,0,0,0,0,0,0,0,0,0,0],"sum_hessian":[7E0,4E0,3E0,3E0,1E0,1E0,2E0,2E0,1E0,1E0,1E0,1E0,1E0],"tree_param":{"num_deleted":"0","num_feature":"2","num_nodes":"13","size_leaf_vector":"1"}},{"base_weights":[-1.7642975E-5,1.5930176E-3,-2.026558E-3,2.1886826E-3,-1.18446354E-4,-8.5201266E-4,-8.087158E-4,2.6550293E-3,1.18446354E-4,2.96402E-4,-6.603241E-4,1.18446354E-4,1.0763169E-3],"categories":[],"categories_nodes":[],"categories_segments":[],"categories_sizes":[],"default_left":[0,0,0,0,0,0,0,0,0,0,0,0,0],"id":43,"left_children":[1,3,5,7,-1,-1,9,11,-1,-1,-1,-1,-1],"loss_changes":[2.9113782E-5,6.7845676E-6,1.6659942E-6,2.2979839E-6,0E0,0E0,9.679759E-6,4.9077353E-6,0E0,0E0,0E0,0E0,0E0],"parents":[2147483647,0,0,1,1,2,2,3,3,6,6,7,7],"right_children":[2,4,6,8,-1,-1,10,12,-1,-1,-1,-1,-1],"split_conditions":[1E1,1.03E2,1.02E2,9E0,-1.18446354E-4,-8.5201266E-4,1.03E2,1.02E2,1.18446354E-4,2.96402E-4,-6.603241E-4,1.18446354E-4,1.0763169E-3],"split_indices":[0,1,1,0,0,0,1,1,0,0,0,0,0],"split_type":[0,0,0,0,0,0,0,0,0,0,0,0,0],"sum_hessian":[7E0,4E0,3E0,3E0,1E0,1E0,2E0,2E0,1E0,1E0,1E0,1E0,1E0],"tree_param":{"num_deleted":"0","num_feature":"2","num_nodes":"13","size_leaf_vector":"1"}},{"base_weights":[-1.5258789E-5,1.3542175E-3,-1.7232895E-3,1.8606186E-3,-1.0070801E-4,-7.2441105E-4,-6.8791705E-4,2.2570293E-3,1.0070801E-4,2.5177002E-4,-5.6133274E-4,1.0070801E-4,9.1495516E-4],"categories":[],"categories_nodes":[],"categories_segments":[],"categories_sizes":[],"default_left":[0,0,0,0,0,0,0,0,0,0,0,0,0],"id":44,"left_children":[1,3,5,7,-1,-1,9,11,-1,-1,-1,-1,-1],"loss_changes":[2.104657E-5,4.9034606E-6,1.2023675E-6,1.6603171E-6,0E0,0E0,6.9910334E-6,3.5460125E-6,0E0,0E0,0E0,0E0,0E0],"parents":[2147483647,0,0,1,1,2,2,3,3,6,6,7,7],"right_children":[2,4,6,8,-1,-1,10,12,-1,-1,-1,-1,-1],"split_conditions":[1E1,1.03E2,1.02E2,9E0,-1.0070801E-4,-7.2441105E-4,1.03E2,1.02E2,1.0070801E-4,2.5177002E-4,-5.6133274E-4,1.0070801E-4,9.1495516E-4],"split_indices":[0,1,1,0,0,0,1,1,0,0,0,0,0],"split_type":[0,0,0,0,0,0,0,0,0,0,0,0,0],"sum_hessian":[7E0,4E0,3E0,3E0,1E0,1E0,2E0,2E0,1E0,1E0,1E0,1E0,1E0],"tree_param":{"num_deleted":"0","num_feature":"2","num_nodes":"13","size_leaf_vector":"1"}},{"base_weights":[-1.2874603E-5,1.1512756E-3,-4.3945314E-4,1.5821457E-3,-8.583069E-5,1.9187927E-3,8.583069E-5,8.583069E-5,7.7762606E-4],"categories":[],"categories_nodes":[],"categories_segments":[],"categories_sizes":[],"default_left":[0,0,0,0,0,0,0,0,0],"id":45,"left_children":[1,3,-1,5,-1,7,-1,-1,-1],"loss_changes":[1.5208921E-5,3.5492712E-6,0E0,1.1962657E-6,0E0,2.5562404E-6,0E0,0E0,0E0],"parents":[2147483647,0,0,1,1,3,3,5,5],"right_children":[2,4,-1,6,-1,8,-1,-1,-1],"split_conditions":[1E1,1.03E2,-4.3945314E-4,9E0,-8.583069E-5,1.02E2,8.583069E-5,8.583069E-5,7.7762606E-4],"split_indices":[0,1,0,0,0,1,0,0,0],"split_type":[0,0,0,0,0,0,0,0,0],"sum_hessian":[7E0,4E0,3E0,3E0,1E0,2E0,1E0,1E0,1E0],"tree_param":{"num_deleted":"0","num_feature":"2","num_nodes":"9","size_leaf_vector":"1"}},{"base_weights":[4.386902E-5,9.788513E-4,-1.1358261E-3,4.0369036E-4,-7.324219E-5,-5.4988865E-4,-2.924601E-4,2.7980807E-4,-4.1141512E-4],"categories":[],"categories_nodes":[],"categories_segments":[],"categories_sizes":[],"default_left":[0,0,0,0,0,0,0,0,0],"id":46,"left_children":[1,3,5,-1,-1,-1,7,-1,-1],"loss_changes":[9.935758E-6,2.571388E-6,1.8156948E-6,0E0,0E0,0E0,5.2446217E-6,0E0,0E0],"parents":[2147483647,0,0,1,1,2,2,6,6],"right_children":[2,4,6,-1,-1,-1,8,-1,-1],"split_conditions":[1E1,1.03E2,1.02E2,4.0369036E-4,-7.324219E-5,-5.4988865E-4,1.03E2,2.7980807E-4,-4.1141512E-4],"split_indices":[0,1,1,0,0,0,1,0,0],"split_type":[0,0,0,0,0,0,0,0,0],"sum_hessian":[7E0,4E0,3E0,3E0,1E0,1E0,2E0,1E0,1E0],"tree_param":{"num_deleted":"0","num_feature":"2","num_nodes":"9","size_leaf_vector":"1"}},{"base_weights":[-1.335144E-5,7.5073243E-4,-9.651184E-4,1.042366E-3,-6.23703E-5,-4.6749116E-4,-2.4795532E-4,1.3618469E-3,1.2588502E-5,2.3803712E-4,-3.49617E-4,1.2588502E-5,6.0024264E-4],"categories":[],"categories_nodes":[],"categories_segments":[],"categories_sizes":[],"default_left":[0,0,0,0,0,0,0,0,0,0,0,0,0],"id":47,"left_children":[1,3,5,7,-1,-1,9,11,-1,-1,-1,-1,-1],"loss_changes":[6.5423837E-6,1.6145575E-6,1.315253E-6,1.221295E-6,0E0,0E0,3.7909704E-6,2.4461115E-6,0E0,0E0,0E0,0E0,0E0],"parents":[2147483647,0,0,1,1,2,2,3,3,6,6,7,7],"right_children":[2,4,6,8,-1,-1,10,12,-1,-1,-1,-1,-1],"split_conditions":[1E1,1.03E2,1.02E2,9E0,-6.23703E-5,-4.6749116E-4,1.03E2,1.02E2,1.2588502E-5,2.3803712E-4,-3.49617E-4,1.2588502E-5,6.0024264E-4],"split_indices":[0,1,1,0,0,0,1,1,0,0,0,0,0],"split_type":[0,0,0,0,0,0,0,0,0,0,0,0,0],"sum_hessian":[7E0,4E0,3E0,3E0,1E0,1E0,2E0,2E0,1E0,1E0,1E0,1E0,1E0],"tree_param":{"num_deleted":"0","num_feature":"2","num_nodes":"13","size_leaf_vector":"1"}},{"base_weights":[-1.04904175E-5,6.385803E-4,-2.4576188E-4,2.6607513E-4,-5.321503E-5],"categories":[],"categories_nodes":[],"categories_segments":[],"categories_sizes":[],"default_left":[0,0,0,0,0],"id":48,"left_children":[1,3,-1,-1,-1],"loss_changes":[4.7224394E-6,1.1704935E-6,0E0,0E0,0E0],"parents":[2147483647,0,0,1,1],"right_children":[2,4,-1,-1,-1],"split_conditions":[1E1,1.03E2,-2.4576188E-4,2.6607513E-4,-5.321503E-5],"split_indices":[0,1,0,0,0],"split_type":[0,0,0,0,0],"sum_hessian":[7E0,4E0,3E0,3E0,1E0],"tree_param":{"num_deleted":"0","num_feature":"2","num_nodes":"5","size_leaf_vector":"1"}},{"base_weights":[-1.2397766E-5,-2.597809E-4,4.1643778E-4,3.4017564E-4,-2.0370484E-4],"categories":[],"categories_nodes":[],"categories_segments":[],"categories_sizes":[],"default_left":[0,0,0,0,0],"id":49,"left_children":[1,-1,3,-1,-1],"loss_changes":[3.2888297E-6,0E0,5.4857533E-6,0E0,0E0],"parents":[2147483647,0,0,2,2],"right_children":[2,-1,4,-1,-1],"split_conditions":[1.02E2,-2.597809E-4,1.03E2,3.4017564E-4,-2.0370484E-4],"split_indices":[1,0,1,0,0],"split_type":[0,0,0,0,0],"sum_hessian":[7E0,2E0,5E0,3E0,2E0],"tree_param":{"num_deleted":"0","num_feature":"2","num_nodes":"5","size_leaf_vector":"1"}},{"base_weights":[-2.4318695E-5,2.0713807E-4,-1.7738342E-4],"categories":[],"categories_nodes":[],"categories_segments":[],"categories_sizes":[],"default_left":[0,0,0],"id":50,"left_children":[1,-1,-1],"loss_changes":[3.6502588E-6,0E0,0E0],"parents":[2147483647,0,0],"right_children":[2,-1,-1],"split_conditions":[9E0,2.0713807E-4,-1.7738342E-4],"split_indices":[0,0,0],"split_type":[0,0,0],"sum_hessian":[7E0,3E0,4E0],"tree_param":{"num_deleted":"0","num_feature":"2","num_nodes":"3","size_leaf_vector":"1"}},{"base_weights":[-1.335144E-5,1.607895E-4,-1.3504029E-4],"categories":[],"categories_nodes":[],"categories_segments":[],"categories_sizes":[],"default_left":[0,0,0],"id":51,"left_children":[1,-1,-1],"loss_changes":[2.160712E-6,0E0,0E0],"parents":[2147483647,0,0],"right_children":[2,-1,-1],"split_conditions":[9E0,1.607895E-4,-1.3504029E-4],"split_indices":[0,0,0],"split_type":[0,0,0],"sum_hessian":[7E0,3E0,4E0],"tree_param":{"num_deleted":"0","num_feature":"2","num_nodes":"3","size_leaf_vector":"1"}},{"base_weights":[-6.67572E-6,-2.1362306E-4,3.4713745E-4,2.8295518E-4,-1.689911E-4],"categories":[],"categories_nodes":[],"categories_segments":[],"categories_sizes":[],"default_left":[0,0,0,0,0],"id":52,"left_children":[1,-1,3,-1,-1],"loss_changes":[2.2438303E-6,0E0,3.78729E-6,0E0,0E0],"parents":[2147483647,0,0,2,2],"right_children":[2,-1,4,-1,-1],"split_conditions":[1.02E2,-2.1362306E-4,1.03E2,2.8295518E-4,-1.689911E-4],"split_indices":[1,0,1,0,0],"split_type":[0,0,0,0,0],"sum_hessian":[7E0,2E0,5E0,3E0,2E0],"tree_param":{"num_deleted":"0","num_feature":"2","num_nodes":"5","size_leaf_vector":"1"}},{"base_weights":[-1.7166138E-5,1.3217927E-4,-1.1398316E-4],"categories":[],"categories_nodes":[],"categories_segments":[],"categories_sizes":[],"default_left":[0,0,0],"id":53,"left_children":[1,-1,-1],"loss_changes":[1.4959339E-6,0E0,0E0],"parents":[2147483647,0,0],"right_children":[2,-1,-1],"split_conditions":[9E0,1.3217927E-4,-1.1398316E-4],"split_indices":[0,0,0],"split_type":[0,0,0],"sum_hessian":[7E0,3E0,4E0],"tree_param":{"num_deleted":"0","num_feature":"2","num_nodes":"3","size_leaf_vector":"1"}},{"base_weights":[-1.001358E-5,-1.728058E-4,2.746582E-4,2.2659302E-4,-1.373291E-4],"categories":[],"categories_nodes":[],"categories_segments":[],"categories_sizes":[],"default_left":[0,0,0,0,0],"id":54,"left_children":[1,-1,3,-1,-1],"loss_changes":[1.4472153E-6,0E0,2.457993E-6,0E0,0E0],"parents":[2147483647,0,0,2,2],"right_children":[2,-1,4,-1,-1],"split_conditions":[1.02E2,-1.728058E-4,1.03E2,2.2659302E-4,-1.373291E-4],"split_indices":[1,0,1,0,0],"split_type":[0,0,0,0,0],"sum_hessian":[7E0,2E0,5E0,3E0,2E0],"tree_param":{"num_deleted":"0","num_feature":"2","num_nodes":"5","size_leaf_vector":"1"}},{"base_weights":[-1.7166138E-5,1.08432774E-4,-9.498597E-5],"categories":[],"categories_nodes":[],"categories_segments":[],"categories_sizes":[],"default_left":[0,0,0],"id":55,"left_children":[1,-1,-1],"loss_changes":[1.0214462E-6,0E0,0E0],"parents":[2147483647,0,0],"right_children":[2,-1,-1],"split_conditions":[9E0,1.08432774E-4,-9.498597E-5],"split_indices":[0,0,0],"split_type":[0,0,0],"sum_hessian":[7E0,3E0,4E0],"tree_param":{"num_deleted":"0","num_feature":"2","num_nodes":"3","size_leaf_vector":"1"}},{"base_weights":[-9.536743E-6],"categories":[],"categories_nodes":[],"categories_segments":[],"categories_sizes":[],"default_left":[0],"id":56,"left_children":[-1],"loss_changes":[0E0],"parents":[2147483647],"right_children":[-1],"split_conditions":[-2.861023E-6],"split_indices":[0],"split_type":[0],"sum_hessian":[7E0],"tree_param":{"num_deleted":"0","num_feature":"2","num_nodes":"1","size_leaf_vector":"1"}},{"base_weights":[-6.198883E-6],"categories":[],"categories_nodes":[],"categories_segments":[],"categories_sizes":[],"default_left":[0],"id":57,"left_children":[-1],"loss_changes":[0E0],"parents":[2147483647],"right_children":[-1],"split_conditions":[-1.859665E-6],"split_indices":[0],"split_type":[0],"sum_hessian":[7E0],"tree_param":{"num_deleted":"0","num_feature":"2","num_nodes":"1","size_leaf_vector":"1"}},{"base_weights":[-6.198883E-6],"categories":[],"categories_nodes":[],"categories_segments":[],"categories_sizes":[],"default_left":[0],"id":58,"left_children":[-1],"loss_changes":[0E0],"parents":[2147483647],"right_children":[-1],"split_conditions":[-1.859665E-6],"split_indices":[0],"split_type":[0],"sum_hessian":[7E0],"tree_param":{"num_deleted":"0","num_feature":"2","num_nodes":"1","size_leaf_vector":"1"}},{"base_weights":[-6.198883E-6],"categories":[],"categories_nodes":[],"categories_segments":[],"categories_sizes":[],"default_left":[0],"id":59,"left_children":[-1],"loss_changes":[0E0],"parents":[2147483647],"right_children":[-1],"split_conditions":[-1.859665E-6],"split_indices":[0],"split_type":[0],"sum_hessian":[7E0],"tree_param":{"num_deleted":"0","num_feature":"2","num_nodes":"1","size_leaf_vector":"1"}},{"base_weights":[-6.198883E-6],"categories":[],"categories_nodes":[],"categories_segments":[],"categories_sizes":[],"default_left":[0],"id":60,"left_children":[-1],"loss_changes":[0E0],"parents":[2147483647],"right_children":[-1],"split_conditions":[-1.859665E-6],"split_indices":[0],"split_type":[0],"sum_hessian":[7E0],"tree_param":{"num_deleted":"0","num_feature":"2","num_nodes":"1","size_leaf_vector":"1"}},{"base_weights":[-6.198883E-6],"categories":[],"categories_nodes":[],"categories_segments":[],"categories_sizes":[],"default_left":[0],"id":61,"left_children":[-1],"loss_changes":[0E0],"parents":[2147483647],"right_children":[-1],"split_conditions":[-1.859665E-6],"split_indices":[0],"split_type":[0],"sum_hessian":[7E0],"tree_param":{"num_deleted":"0","num_feature":"2","num_nodes":"1","size_leaf_vector":"1"}},{"base_weights":[-6.198883E-6],"categories":[],"categories_nodes":[],"categories_segments":[],"categories_sizes":[],"default_left":[0],"id":62,"left_children":[-1],"loss_changes":[0E0],"parents":[2147483647],"right_children":[-1],"split_conditions":[-1.859665E-6],"split_indices":[0],"split_type":[0],"sum_hessian":[7E0],"tree_param":{"num_deleted":"0","num_feature":"2","num_nodes":"1","size_leaf_vector":"1"}},{"base_weights":[-6.198883E-6],"categories":[],"categories_nodes":[],"categories_segments":[],"categories_sizes":[],"default_left":[0],"id":63,"left_children":[-1],"loss_changes":[0E0],"parents":[2147483647],"right_children":[-1],"split_conditions":[-1.859665E-6],"split_indices":[0],"split_type":[0],"sum_hessian":[7E0],"tree_param":{"num_deleted":"0","num_feature":"2","num_nodes":"1","size_leaf_vector":"1"}},{"base_weights":[-6.198883E-6],"categories":[],"categories_nodes":[],"categories_segments":[],"categories_sizes":[],"default_left":[0],"id":64,"left_children":[-1],"loss_changes":[0E0],"parents":[2147483647],"right_children":[-1],"split_conditions":[-1.859665E-6],"split_indices":[0],"split_type":[0],"sum_hessian":[7E0],"tree_param":{"num_deleted":"0","num_feature":"2","num_nodes":"1","size_leaf_vector":"1"}},{"base_weights":[-6.198883E-6],"categories":[],"categories_nodes":[],"categories_segments":[],"categories_sizes":[],"default_left":[0],"id":65,"left_children":[-1],"loss_changes":[0E0],"parents":[2147483647],"right_children":[-1],"split_conditions":[-1.859665E-6],"split_indices":[0],"split_type":[0],"sum_hessian":[7E0],"tree_param":{"num_deleted":"0","num_feature":"2","num_nodes":"1","size_leaf_vector":"1"}},{"base_weights":[-6.198883E-6],"categories":[],"categories_nodes":[],"categories_segments":[],"categories_sizes":[],"default_left":[0],"id":66,"left_children":[-1],"loss_changes":[0E0],"parents":[2147483647],"right_children":[-1],"split_conditions":[-1.859665E-6],"split_indices":[0],"split_type":[0],"sum_hessian":[7E0],"tree_param":{"num_deleted":"0","num_feature":"2","num_nodes":"1","size_leaf_vector":"1"}},{"base_weights":[-6.198883E-6],"categories":[],"categories_nodes":[],"categories_segments":[],"categories_sizes":[],"default_left":[0],"id":67,"left_children":[-1],"loss_changes":[0E0],"parents":[2147483647],"right_children":[-1],"split_conditions":[-1.859665E-6],"split_indices":[0],"split_type":[0],"sum_hessian":[7E0],"tree_param":{"num_deleted":"0","num_feature":"2","num_nodes":"1","size_leaf_vector":"1"}},{"base_weights":[-6.198883E-6],"categories":[],"categories_nodes":[],"categories_segments":[],"categories_sizes":[],"default_left":[0],"id":68,"left_children":[-1],"loss_changes":[0E0],"parents":[2147483647],"right_children":[-1],"split_conditions":[-1.859665E-6],"split_indices":[0],"split_type":[0],"sum_hessian":[7E0],"tree_param":{"num_deleted":"0","num_feature":"2","num_nodes":"1","size_leaf_vector":"1"}},{"base_weights":[-6.198883E-6],"categories":[],"categories_nodes":[],"categories_segments":[],"categories_sizes":[],"default_left":[0],"id":69,"left_children":[-1],"loss_changes":[0E0],"parents":[2147483647],"right_children":[-1],"split_conditions":[-1.859665E-6],"split_indices":[0],"split_type":[0],"sum_hessian":[7E0],"tree_param":{"num_deleted":"0","num_feature":"2","num_nodes":"1","size_leaf_vector":"1"}},{"base_weights":[-6.198883E-6],"categories":[],"categories_nodes":[],"categories_segments":[],"categories_sizes":[],"default_left":[0],"id":70,"left_children":[-1],"loss_changes":[0E0],"parents":[2147483647],"right_children":[-1],"split_conditions":[-1.859665E-6],"split_indices":[0],"split_type":[0],"sum_hessian":[7E0],"tree_param":{"num_deleted":"0","num_feature":"2","num_nodes":"1","size_leaf_vector":"1"}},{"base_weights":[-6.198883E-6],"categories":[],"categories_nodes":[],"categories_segments":[],"categories_sizes":[],"default_left":[0],"id":71,"left_children":[-1],"loss_changes":[0E0],"parents":[2147483647],"right_children":[-1],"split_conditions":[-1.859665E-6],"split_indices":[0],"split_type":[0],"sum_hessian":[7E0],"tree_param":{"num_deleted":"0","num_feature":"2","num_nodes":"1","size_leaf_vector":"1"}},{"base_weights":[-6.198883E-6],"categories":[],"categories_nodes":[],"categories_segments":[],"categories_sizes":[],"default_left":[0],"id":72,"left_children":[-1],"loss_changes":[0E0],"parents":[2147483647],"right_children":[-1],"split_conditions":[-1.859665E-6],"split_indices":[0],"split_type":[0],"sum_hessian":[7E0],"tree_param":{"num_deleted":"0","num_feature":"2","num_nodes":"1","size_leaf_vector":"1"}},{"base_weights":[-6.198883E-6],"categories":[],"categories_nodes":[],"categories_segments":[],"categories_sizes":[],"default_left":[0],"id":73,"left_children":[-1],"loss_changes":[0E0],"parents":[2147483647],"right_children":[-1],"split_conditions":[-1.859665E-6],"split_indices":[0],"split_type":[0],"sum_hessian":[7E0],"tree_param":{"num_deleted":"0","num_feature":"2","num_nodes":"1","size_leaf_vector":"1"}},{"base_weights":[-6.198883E-6],"categories":[],"categories_nodes":[],"categories_segments":[],"categories_sizes":[],"default_left":[0],"id":74,"left_children":[-1],"loss_changes":[0E0],"parents":[2147483647],"right_children":[-1],"split_conditions":[-1.859665E-6],"split_indices":[0],"split_type":[0],"sum_hessian":[7E0],"tree_param":{"num_deleted":"0","num_feature":"2","num_nodes":"1","size_leaf_vector":"1"}},{"base_weights":[-6.198883E-6],"categories":[],"categories_nodes":[],"categories_segments":[],"categories_sizes":[],"default_left":[0],"id":75,"left_children":[-1],"loss_changes":[0E0],"parents":[2147483647],"right_children":[-1],"split_conditions":[-1.859665E-6],"split_indices":[0],"split_type":[0],"sum_hessian":[7E0],"tree_param":{"num_deleted":"0","num_feature":"2","num_nodes":"1","size_leaf_vector":"1"}},{"base_weights":[-6.198883E-6],"categories":[],"categories_nodes":[],"categories_segments":[],"categories_sizes":[],"default_left":[0],"id":76,"left_children":[-1],"loss_changes":[0E0],"parents":[2147483647],"right_children":[-1],"split_conditions":[-1.859665E-6],"split_indices":[0],"split_type":[0],"sum_hessian":[7E0],"tree_param":{"num_deleted":"0","num_feature":"2","num_nodes":"1","size_leaf_vector":"1"}},{"base_weights":[-6.198883E-6],"categories":[],"categories_nodes":[],"categories_segments":[],"categories_sizes":[],"default_left":[0],"id":77,"left_children":[-1],"loss_changes":[0E0],"parents":[2147483647],"right_children":[-1],"split_conditions":[-1.859665E-6],"split_indices":[0],"split_type":[0],"sum_hessian":[7E0],"tree_param":{"num_deleted":"0","num_feature":"2","num_nodes":"1","size_leaf_vector":"1"}},{"base_weights":[-6.198883E-6],"categories":[],"categories_nodes":[],"categories_segments":[],"categories_sizes":[],"default_left":[0],"id":78,"left_children":[-1],"loss_changes":[0E0],"parents":[2147483647],"right_children":[-1],"split_conditions":[-1.859665E-6],"split_indices":[0],"split_type":[0],"sum_hessian":[7E0],"tree_param":{"num_deleted":"0","num_feature":"2","num_nodes":"1","size_leaf_vector":"1"}},{"base_weights":[-6.198883E-6],"categories":[],"categories_nodes":[],"categories_segments":[],"categories_sizes":[],"default_left":[0],"id":79,"left_children":[-1],"loss_changes":[0E0],"parents":[2147483647],"right_children":[-1],"split_conditions":[-1.859665E-6],"split_indices":[0],"split_type":[0],"sum_hessian":[7E0],"tree_param":{"num_deleted":"0","num_feature":"2","num_nodes":"1","size_leaf_vector":"1"}},{"base_weights":[-6.198883E-6],"categories":[],"categories_nodes":[],"categories_segments":[],"categories_sizes":[],"default_left":[0],"id":80,"left_children":[-1],"loss_changes":[0E0],"parents":[2147483647],"right_children":[-1],"split_conditions":[-1.859665E-6],"split_indices":[0],"split_type":[0],"sum_hessian":[7E0],"tree_param":{"num_deleted":"0","num_feature":"2","num_nodes":"1","size_leaf_vector":"1"}},{"base_weights":[-6.198883E-6],"categories":[],"categories_nodes":[],"categories_segments":[],"categories_sizes":[],"default_left":[0],"id":81,"left_children":[-1],"loss_changes":[0E0],"parents":[2147483647],"right_children":[-1],"split_conditions":[-1.859665E-6],"split_indices":[0],"split_type":[0],"sum_hessian":[7E0],"tree_param":{"num_deleted":"0","num_feature":"2","num_nodes":"1","size_leaf_vector":"1"}},{"base_weights":[-6.198883E-6],"categories":[],"categories_nodes":[],"categories_segments":[],"categories_sizes":[],"default_left":[0],"id":82,"left_children":[-1],"loss_changes":[0E0],"parents":[2147483647],"right_children":[-1],"split_conditions":[-1.859665E-6],"split_indices":[0],"split_type":[0],"sum_hessian":[7E0],"tree_param":{"num_deleted":"0","num_feature":"2","num_nodes":"1","size_leaf_vector":"1"}},{"base_weights":[-6.198883E-6],"categories":[],"categories_nodes":[],"categories_segments":[],"categories_sizes":[],"default_left":[0],"id":83,"left_children":[-1],"loss_changes":[0E0],"parents":[2147483647],"right_children":[-1],"split_conditions":[-1.859665E-6],"split_indices":[0],"split_type":[0],"sum_hessian":[7E0],"tree_param":{"num_deleted":"0","num_feature":"2","num_nodes":"1","size_leaf_vector":"1"}},{"base_weights":[-6.198883E-6],"categories":[],"categories_nodes":[],"categories_segments":[],"categories_sizes":[],"default_left":[0],"id":84,"left_children":[-1],"loss_changes":[0E0],"parents":[2147483647],"right_children":[-1],"split_conditions":[-1.859665E-6],"split_indices":[0],"split_type":[0],"sum_hessian":[7E0],"tree_param":{"num_deleted":"0","num_feature":"2","num_nodes":"1","size_leaf_vector":"1"}},{"base_weights":[-6.198883E-6],"categories":[],"categories_nodes":[],"categories_segments":[],"categories_sizes":[],"default_left":[0],"id":85,"left_children":[-1],"loss_changes":[0E0],"parents":[2147483647],"right_children":[-1],"split_conditions":[-1.859665E-6],"split_indices":[0],"split_type":[0],"sum_hessian":[7E0],"tree_param":{"num_deleted":"0","num_feature":"2","num_nodes":"1","size_leaf_vector":"1"}},{"base_weights":[-6.198883E-6],"categories":[],"categories_nodes":[],"categories_segments":[],"categories_sizes":[],"default_left":[0],"id":86,"left_children":[-1],"loss_changes":[0E0],"parents":[2147483647],"right_children":[-1],"split_conditions":[-1.859665E-6],"split_indices":[0],"split_type":[0],"sum_hessian":[7E0],"tree_param":{"num_deleted":"0","num_feature":"2","num_nodes":"1","size_leaf_vector":"1"}},{"base_weights":[-6.198883E-6],"categories":[],"categories_nodes":[],"categories_segments":[],"categories_sizes":[],"default_left":[0],"id":87,"left_children":[-1],"loss_changes":[0E0],"parents":[2147483647],"right_children":[-1],"split_conditions":[-1.859665E-6],"split_indices":[0],"split_type":[0],"sum_hessian":[7E0],"tree_param":{"num_deleted":"0","num_feature":"2","num_nodes":"1","size_leaf_vector":"1"}},{"base_weights":[-6.198883E-6],"categories":[],"categories_nodes":[],"categories_segments":[],"categories_sizes":[],"default_left":[0],"id":88,"left_children":[-1],"loss_changes":[0E0],"parents":[2147483647],"right_children":[-1],"split_conditions":[-1.859665E-6],"split_indices":[0],"split_type":[0],"sum_hessian":[7E0],"tree_param":{"num_deleted":"0","num_feature":"2","num_nodes":"1","size_leaf_vector":"1"}},{"base_weights":[-6.198883E-6],"categories":[],"categories_nodes":[],"categories_segments":[],"categories_sizes":[],"default_left":[0],"id":89,"left_children":[-1],"loss_changes":[0E0],"parents":[2147483647],"right_children":[-1],"split_conditions":[-1.859665E-6],"split_indices":[0],"split_type":[0],"sum_hessian":[7E0],"tree_param":{"num_deleted":"0","num_feature":"2","num_nodes":"1","size_leaf_vector":"1"}},{"base_weights":[-6.198883E-6],"categories":[],"categories_nodes":[],"categories_segments":[],"categories_sizes":[],"default_left":[0],"id":90,"left_children":[-1],"loss_changes":[0E0],"parents":[2147483647],"right_children":[-1],"split_conditions":[-1.859665E-6],"split_indices":[0],"split_type":[0],"sum_hessian":[7E0],"tree_param":{"num_deleted":"0","num_feature":"2","num_nodes":"1","size_leaf_vector":"1"}},{"base_weights":[-6.198883E-6],"categories":[],"categories_nodes":[],"categories_segments":[],"categories_sizes":[],"default_left":[0],"id":91,"left_children":[-1],"loss_changes":[0E0],"parents":[2147483647],"right_children":[-1],"split_conditions":[-1.859665E-6],"split_indices":[0],"split_type":[0],"sum_hessian":[7E0],"tree_param":{"num_deleted":"0","num_feature":"2","num_nodes":"1","size_leaf_vector":"1"}},{"base_weights":[-6.198883E-6],"categories":[],"categories_nodes":[],"categories_segments":[],"categories_sizes":[],"default_left":[0],"id":92,"left_children":[-1],"loss_changes":[0E0],"parents":[2147483647],"right_children":[-1],"split_conditions":[-1.859665E-6],"split_indices":[0],"split_type":[0],"sum_hessian":[7E0],"tree_param":{"num_deleted":"0","num_feature":"2","num_nodes":"1","size_leaf_vector":"1"}},{"base_weights":[-6.198883E-6],"categories":[],"categories_nodes":[],"categories_segments":[],"categories_sizes":[],"default_left":[0],"id":93,"left_children":[-1],"loss_changes":[0E0],"parents":[2147483647],"right_children":[-1],"split_conditions":[-1.859665E-6],"split_indices":[0],"split_type":[0],"sum_hessian":[7E0],"tree_param":{"num_deleted":"0","num_feature":"2","num_nodes":"1","size_leaf_vector":"1"}},{"base_weights":[-6.198883E-6],"categories":[],"categories_nodes":[],"categories_segments":[],"categories_sizes":[],"default_left":[0],"id":94,"left_children":[-1],"loss_changes":[0E0],"parents":[2147483647],"right_children":[-1],"split_conditions":[-1.859665E-6],"split_indices":[0],"split_type":[0],"sum_hessian":[7E0],"tree_param":{"num_deleted":"0","num_feature":"2","num_nodes":"1","size_leaf_vector":"1"}},{"base_weights":[-6.198883E-6],"categories":[],"categories_nodes":[],"categories_segments":[],"categories_sizes":[],"default_left":[0],"id":95,"left_children":[-1],"loss_changes":[0E0],"parents":[2147483647],"right_children":[-1],"split_conditions":[-1.859665E-6],"split_indices":[0],"split_type":[0],"sum_hessian":[7E0],"tree_param":{"num_deleted":"0","num_feature":"2","num_nodes":"1","size_leaf_vector":"1"}},{"base_weights":[-6.198883E-6],"categories":[],"categories_nodes":[],"categories_segments":[],"categories_sizes":[],"default_left":[0],"id":96,"left_children":[-1],"loss_changes":[0E0],"parents":[2147483647],"right_children":[-1],"split_conditions":[-1.859665E-6],"split_indices":[0],"split_type":[0],"sum_hessian":[7E0],"tree_param":{"num_deleted":"0","num_feature":"2","num_nodes":"1","size_leaf_vector":"1"}},{"base_weights":[-6.198883E-6],"categories":[],"categories_nodes":[],"categories_segments":[],"categories_sizes":[],"default_left":[0],"id":97,"left_children":[-1],"loss_changes":[0E0],"parents":[2147483647],"right_children":[-1],"split_conditions":[-1.859665E-6],"split_indices":[0],"split_type":[0],"sum_hessian":[7E0],"tree_param":{"num_deleted":"0","num_feature":"2","num_nodes":"1","size_leaf_vector":"1"}},{"base_weights":[-6.198883E-6],"categories":[],"categories_nodes":[],"categories_segments":[],"categories_sizes":[],"default_left":[0],"id":98,"left_children":[-1],"loss_changes":[0E0],"parents":[2147483647],"right_children":[-1],"split_conditions":[-1.859665E-6],"split_indices":[0],"split_type":[0],"sum_hessian":[7E0],"tree_param":{"num_deleted":"0","num_feature":"2","num_nodes":"1","size_leaf_vector":"1"}},{"base_weights":[-6.198883E-6],"categories":[],"categories_nodes":[],"categories_segments":[],"categories_sizes":[],"default_left":[0],"id":99,"left_children":[-1],"loss_changes":[0E0],"parents":[2147483647],"right_children":[-1],"split_conditions":[-1.859665E-6],"split_indices":[0],"split_type":[0],"sum_hessian":[7E0],"tree_param":{"num_deleted":"0","num_feature":"2","num_nodes":"1","size_leaf_vector":"1"}}]},"name":"gbtree"},"learner_model_param":{"base_score":"5.2857143E1","boost_from_average":"1","num_class":"0","num_feature":"2","num_target":"1"},"objective":{"name":"reg:squarederror","reg_loss_param":{"scale_pos_weight":"1"}}},"version":[3,0,0]}